solver_type L2R_L2LOSS_SVC_DUAL
nr_class 7
label 100 120 30 50 60 70 80
nr_feature 5733
bias -1
w
-0.01982686505365467 0.09426826142220361 -0.02976328642289362 0.08412614263024096 0.05989711272167128 0.01187956908666296 -0.09534930691642592 
-0.04698279205039742 -0.02406817414029082 -0.007584100923178693 -0.03157779203756238 0.02986558106817898 7.066129154684345e-05 0.004762719666398334 
-0.1075499913699115 -0.01663144797856964 0.01165208507648829 0.01413785706838438 0.02720673216261378 -0.002243620468530098 0.05253919326639376 
-0.01948100852533464 0.0206761466703568 0.07763904442294312 -0.04279063962659217 -0.006042416220819179 0.004399958501742333 -0.02407762183769773 
0.01054082852076234 0.02648173002131315 -0.01502666472305937 -0.02542389998749575 0.01170730769304813 0.01551219505369542 0.0994637099932633 
0.03627531426505167 -0.01639045926379627 0.03103954235930697 -0.14599329214086 0.0297870603242264 0.0250792362986529 0.06973069813114986 
-0.1276186509872738 -0.02306917477577633 0.02087557694459945 0.03555736206692387 0.08177385214168115 -0.007484106139914874 -0.1870611551220315 
-0.05164935231738757 0.01299388746927205 -0.001991329717412347 0.0455930630094312 0.01594428572509473 -0.04241601572887386 0.007452784341520829 
-0.01087555814011728 0.01563749885977864 -0.02050046617257114 -0.02920130489631509 0.01648727452465349 -0.008377330406307981 -0.09470796881313587 
0.07195397851292967 -0.05363096096566257 0.08324739596640628 -0.00447319025265122 -0.002160096058748399 0.02118021067039826 -0.2055306842450017 
-0.002451385587455438 0.04533054487085079 -0.04521690620684766 0.1222513512366726 -0.01372754393325319 -0.02219720134332388 -0.07346187733362723 
0.03605492177883361 0.04718268233490968 -0.08743528854876442 0.1650083141857154 -0.02336725880927115 -0.03717087012156022 -0.09205437177767187 
0.04599021297054372 0.01377165296402454 -0.01140566567464923 0.03209373079658728 0.026175548833918 -0.04248479358419664 -0.1695404789376836 
-0.03219493013371571 0.05381519372308997 0.01849866311622744 0.03203778874134577 -0.007417134839006838 0.02974408007985829 -0.09223421652001335 
-0.07715232336326969 0.01859143093749576 0.03700274268846258 0.04360627797837627 -0.006393269921332358 -0.008630028417928632 -0.01801284531859376 
-0.05088654364325004 -0.001549757168828185 -0.01270280361533572 0.06487671700888253 -0.05490775732235489 0.02082955496850299 0.04067464122955861 
-0.002304733762306883 -0.002234439584286487 0.04666582199416709 -0.07489056345161642 -0.05836997760646642 -0.007726502190768317 0.1301798820786306 
0.008682972818978991 -0.00498152621421937 -0.0309035738315456 -0.03104131288091205 -1.206426640187517e-05 0.004462790011865944 0.2308191573745478 
-0.08640441556722812 -0.002358373265770572 -0.006581347146010117 -0.06309859445811609 0.01214268453064105 -0.03145765957786839 0.1716844602361603 
0.01923670774792871 0.01974501430639937 -0.04867163693363794 0.04907494949481513 -0.01326060526179691 -0.003270272945304475 0.0153996473348016 
-0.03533523037028352 0.00213592237575767 -0.04492036080376838 0.0353777687224906 0.018850735608453 0.04073040432282795 -0.08694974663186075 
-0.02926602506499074 0.02062567856268076 0.03450801604414578 -0.1115855766509369 0.005470054489690091 0.02229782819354936 -0.07970939216254805 
0.007702823980549691 -0.03033838184311216 0.02982238658116225 -0.08182396082300758 0.03544833495656691 -0.002039638437817214 -0.07844371708181139 
0.1089037702019846 -0.07897677906272987 -0.007205526537207828 0.003955976271921921 0.03590958499626919 -0.05674647513284199 0.0003611948500853218 
0.04896762978609816 -0.08260923235147179 -0.006408143895231221 0.1012120962418717 0.03538345463529233 -0.0268623327650931 -0.1011757099541567 
0.04076361479334364 -0.002640521101172419 0.09376617940291816 -0.07684118837557107 0.03047049455190246 -0.05466196404011956 -0.1135602936100944 
-0.003604157958119272 0.001491156941529497 -0.02049145828671262 0.08107714845180714 -0.005919410729618737 0.005975355016505853 -0.1382010188206867 
-0.001400141904759886 0.02278901391087824 -0.02734257310751307 0.0668805865076923 0.008566038161187235 0.002524171951112817 -0.03372794618270882 
-0.01841712064910611 0.008442682983612441 0.04995722423878766 -0.07861388701750029 -0.02546992749522379 -0.03250262688502472 0.07993295367405992 
-0.01018671127553228 0.02067864779896359 0.04762418343343262 -0.04258039517930437 0.01928840425877005 -0.03477651483170456 -0.06707570169625607 
-0.05373839553454482 -0.05759724141990311 -0.09188884894322655 0.01803366900413896 0.009942465060771137 0.01278903973735664 0.02866698382766455 
-0.009299739825865553 -0.003227153120536965 -0.08379608794700634 -0.06862673170951637 -0.0003364039378521801 -0.02607303611100424 0.002250692975826872 
-0.04382503656980184 0.0006697947277431663 -0.03574597570656612 0.1331915671677384 -0.05300918562656558 -0.005920815952300605 -0.008245105728218028 
-0.03682592135466881 0.0118255900172514 0.02860085850891013 -0.06732382616364894 0.01929002586531235 0.005100644706203508 0.04719108174268116 
-0.03118946473827863 -0.03298207419671121 0.03779458448101961 0.03046337889188749 0.002424893301170772 0.007231170831381309 -0.01772141721449967 
-0.02445901092451551 -0.004936985860429607 0.09687356201909066 -0.1376622794001464 -0.01150282754770898 0.01786233030361893 -0.001472220164626635 
0.005476181880481891 0.02080466363595791 0.08965456749936028 0.008259889116809218 -0.02356485015374476 -0.006990648102470441 -0.05038546040676663 
-0.04127164685671872 0.009053895886320612 0.007521233881043169 -0.01444072196273825 0.02662535615691005 0.04142349771969502 0.0213625063820662 
-0.02277586886395428 0.005562248584545471 -0.01020405830647323 -0.03057709982381687 0.1057033139047796 -0.008099851594840108 0.02530536026896858 
0.003836632277699622 0.06807711545621153 -0.07395118342651945 -0.04802425236343605 0.05901040108383632 0.01777963044211607 -0.09973337861232899 
-0.0008666076939453126 0.006956990268549146 -0.004821532604813315 0.0725706783210313 -0.006961320507771596 -0.00828484247391047 0.02286918149136602 
0.01647261838450392 0.002969091056324592 0.1113512198506324 0.01652089179174308 -0.02906664518877179 -0.04243498343018697 -0.01571272265449682 
-0.01697555778340077 0.003231824762799377 0.1149759547817012 -0.1782493953499087 0.01155629978758288 0.02952218888917157 0.0370051999730918 
0.009084172625401413 0.00981196213077294 0.009515256662493615 -0.09280700971708965 0.02337933894167324 -3.912981908769858e-05 -0.04871553819807825 
0.02315462606451039 0.05739655964989441 -0.09540462450615844 0.062712245863843 -0.01679525306501984 0.009928293200559874 -0.08606072162115826 
-0.02359084733856076 0.03020763005222741 -0.07988489584338877 -0.01918662793001263 -0.02508754849064186 0.02055308363583166 0.001625327499150562 
-0.009803127200067079 -0.01383905400979559 -0.02696375774130157 -0.03768510636179103 -0.02171951401173619 -0.004295700756425993 0.08498880133029695 
0.059848271350495 -0.02299428758494492 -0.09845198427991877 0.04333151226585071 -0.02631275658177664 -0.006844696940123983 0.06617972262390531 
0.02170205304862256 0.005467033096515098 0.06744349034105457 -0.0387965771272191 -0.0113110616654339 -0.001327716754584936 -0.06485108754472908 
0.01640783799434632 0.004686873953413224 0.07353396183017975 -0.03274912929675895 -0.008398279487439904 -0.04417410737327946 -0.1351183921135051 
-0.05742418734802091 0.039731618066394 -0.005434692002325619 -0.03920613045936187 0.01497200195751727 0.02998113356364519 0.007718409499126389 
0.04984306949249065 -0.07032401405541323 0.01259894017014211 0.001533546426860207 0.05632654877984349 0.02839318010129742 -0.1313476188432386 
-0.02449415001175379 0.02867398327294095 0.01612772153627364 0.033602182698189 -0.05792551031506585 -0.03053573250499115 0.123254522274065 
0.02135342716559858 -0.01184771803983947 0.0002179438497967567 0.02034878043049587 -0.02420034793024706 0.001567754169133298 0.04611570915051993 
-0.0285659938601743 -0.02772683502038461 -0.008511364005527943 0.06275664172595544 -0.01652235304990734 -0.009365784431900481 -0.0004986543531569397 
-0.0003669633326976851 0.01155520250228934 0.04240571485004405 0.01676636297190813 -0.03068619823413887 0.004045822154314134 -0.001853071873159491 
-0.04362374474013655 -0.00910400521089421 -0.0815693640910127 0.04569348524794418 0.00709383851093227 -0.01229884888934079 0.007079851248571145 
-0.05077516892980254 -0.02185860616671007 -0.03117752745458726 -0.01444563273607847 -0.03445084056616081 0.05199536153491175 -0.02816889872589599 
0.05357347974236262 -0.01666206156266796 -0.0159665364213331 -0.005489360696687138 0.03881144469977295 -0.03680186683030885 -0.08624150348402446 
0.02307789477966646 0.001989168951709455 -0.02587918778494848 0.06441955081355522 0.02256479673383198 -0.004030384822149169 0.04349937828507161 
-0.02029463008138206 0.04002524437209831 -0.03890588691262718 0.05638355139162831 0.01274715290051672 -0.009735988228584418 -0.001030284224845283 
0.09332984023512231 -0.05995810934176487 0.05984120082910915 -0.08157722066296043 0.0160040938807056 0.01231636828063306 0.008375295183897319 
0.09172300349263286 -0.0007551910035399103 0.03998375806914518 -0.06053306929710068 -0.03921790885058242 0.0004114314451969418 -0.0885887524501363 
-0.04318206405036873 0.01347939835670119 -0.02041173098273073 -0.01583978908211192 -0.02018048478660194 0.05603431621880715 0.02780810773350604 
-0.04771530474354018 -0.05143527825361525 0.029117315458019 0.02555085035814168 -0.01314835994769773 0.003784922160729169 0.15948920256671 
-0.07785022845976598 -0.02556053935987074 -0.06767382048834349 -0.0518893998635702 -0.02850113650362569 0.01555430985420043 0.1327231719000919 
-0.01218135236797478 0.02461225014719646 -0.02668139077689047 -0.02808521485338102 -0.01741028247297295 -0.006122057686065668 0.1054240254185265 
-0.009375613061532591 0.006250606463663342 -0.008645184636425845 -0.01364318200967647 0.005867329140216895 0.00068216571923253 0.0250786456965333 
-0.05425924722422177 0.01533539988929759 0.01467813537653966 0.02303717658444792 -0.01015626466314882 -0.03214798400565479 0.05272613217185194 
-0.02950006190089396 0.05175725239103786 0.01861871036744473 -0.1230260023074462 -0.01642355128470309 0.01217125101045807 -0.04731324876851552 
0.1221987906725339 -0.06994865618053382 -0.02040715160466683 -0.1075876529235828 -0.06060179275080194 -0.003370509544837798 0.2568327890562153 
-0.002883216747982742 0.01772982772551515 -0.0294266824436287 0.04433665828030756 -0.001405744337418336 -0.04168201759146258 -0.09277793713555391 
0.01458197260358769 -0.04005797219655502 -0.02785760673056092 -0.001373227956343273 -0.02461352738836343 -0.002558923054980938 0.06681636385915229 
-0.004108947989484297 0.005821442481115656 -0.03073904514844452 0.07188487329998604 0.01293991865960468 0.01321590404609727 -0.06669340088475184 
-0.03435426589097593 -0.01646250746114346 0.02621684784753209 -0.03586230220335582 -0.02245922608710682 -0.01199738398938221 0.03638760915786493 
0.01608260846235888 0.01513175640149849 -0.08956728870295239 0.04892879833774796 -0.003595213745199244 -0.02980633784846911 0.01587913009421025 
0.03120903407106632 0.03674872993710711 0.05767611427554217 -0.05195186614020384 -0.008413527753938098 -0.01863018620397471 -0.01819913082066716 
-0.03289193859030008 0.0450840390438738 -0.006795233579312546 -0.2305401288783121 -0.01296615460604597 0.001124144162044739 0.01309949176310149 
0.02011114421008598 0.02871970939128938 0.03836573774911931 0.04874595988440235 0.03539517945641692 -0.04237611832868858 -0.1139240469112569 
-0.01567006448313295 0.00865596360991111 -0.02249281920127556 0.0290175070311223 0.0143783683320468 0.02191032354673403 -0.02939799850628447 
0.006497853584396748 -0.01747796551420755 0.05961725236890694 -0.08592923477115233 0.01506896350390662 0.003935973722780247 0.02249859213086762 
-0.01447348826459428 -0.0158147420084451 0.04837570684486125 0.006353107263593607 -0.02926104700641768 0.01114136393397362 -0.053812753278576 
0.003841743222773325 -0.02584343745009635 -0.05520674307483096 -0.03121618973217399 -0.06182251900211749 -0.003037843097041583 0.05838208521494428 
0.002753932993426161 -0.033876447610442 -0.02755374842342294 0.03220260596795248 -0.0194471572645362 -0.004355125852368306 0.05180407439539109 
0.006866732740599132 -0.01584545286758485 0.05634993460793191 -0.03668466213942961 -0.01693196662412083 -0.01837365803901452 -0.04890378277263298 
0.002636109553124123 -0.03488901280969452 -0.04658847356915718 0.07125608187374334 -0.001610153060575214 -0.01053216028438915 0.09790602854946003 
-0.01554011370651073 0.04987739908272459 -0.05590153448733929 -0.01666607162398096 0.009405860236932004 -0.003893526928816742 0.1154664984166379 
-0.01376982006209193 0.04850839623613475 -0.01220939676905062 -0.07468069704770243 0.02747733337959972 -0.01263681367879195 -0.1234471138029161 
0.01218034358980002 -0.05919014807476602 -0.0618164734840921 0.06172118696683838 -0.03506283102171606 0.01589369971146264 -0.0251073001137396 
-0.01099358387677866 -0.06769844174369073 -0.08161826777536012 0.132253061383301 0.04228128242556917 0.07753105866642387 -0.03210822509992148 
0.03510079499089512 -0.07887513763874264 0.03484785231273844 -0.0475878289688868 -0.006622922207127671 0.01572800257616887 -0.1914367309591863 
-0.0118318266090626 -0.03918372343450253 0.03953298417360152 0.02357846263994262 0.02135323059504419 0.02150316895751875 -0.0904383662028785 
-0.006404339133163989 -0.01323655998242716 0.001676313004312348 -0.01133402456396851 0.006260717285859115 0.01615471149997338 -0.009332773256108736 
-0.0009515424958916908 -0.0233528643504663 0.007468177501335569 0.026921890010904 0.003353869020250421 -0.000391523734361812 0.02321285827313531 
-0.0949793535604346 0.03060537914650783 -0.008633080931125534 0.03764699698053308 0.09551429656623735 0.02030021678700571 -0.1849555841517992 
0.0763965499269825 0.04251760073815928 -0.04200889679699881 -0.0692219323148172 -0.04464722183838975 0.003455226377771873 0.007297454658588388 
0.02204607345372099 -0.009285162581981105 0.02017485967204339 -0.04871231802868666 -0.016516858192803 -0.06330600170356504 -0.03997273449935918 
0.03075095542290492 -0.02773685805444973 -0.05247429075974785 -0.1068457297897182 -0.04095404204058947 0.001443029571454461 0.05854982794120499 
-0.04259044093560214 0.004829665938559674 -0.04915499292755566 -0.0222897764292636 -0.01146532197204477 0.001117973778623326 0.01737032527598642 
-0.03042707328679558 0.01831835032536117 -0.02313728827456334 0.02111526750973469 -0.01223597182687465 0.002149847408671413 -0.003401058087833173 
-0.04413421473108388 0.003546515446187789 0.02206431779884919 -0.01021570735613552 0.008453342529263856 -0.07312555665445268 0.1001472189784846 
-0.04227108909459476 -0.01420070569333619 -0.005584260529507721 -0.0301206559397605 -0.03106243363741819 0.03366662650053658 0.04902471927549387 
-0.01379938970727619 -0.01221333768647009 -0.06467098728310973 0.0221513438143325 0.03216956820198196 0.03247071775167006 0.004656297029535023 
-0.08081596849581175 -0.008477797845130636 0.0418298735042952 0.04512324915981042 0.04711668092120923 0.02133638770111542 0.103894062656895 
0.02224785620962035 -0.04111986535404934 0.01411538587039118 0.1538714068461749 -0.0381076683629222 0.001796885502810327 -0.08083095964675287 
-0.007297086643514124 -0.007839619942229231 0.0129042413182852 -0.004470979032129916 -0.01536213957716602 -0.007910413848707854 -0.03507687838194477 
0.01159182864946237 -0.0104672038836871 -0.03900686292125139 0.04251371930960197 -0.01108086543663984 -0.01003719412194473 0.05002537762283893 
-0.06212117925313015 -0.07574837647233977 0.00666114863951812 0.001068317335876769 0.07133785871576513 0.01838277889991618 -0.1299256916648046 
-0.07210755435797117 0.04019010704730058 0.007804563423939067 -0.1735698211975955 0.1041712340174112 -0.005272672899747441 -0.04847926524573103 
0.01668266836715888 -0.005477835458435113 -0.03693735287935362 -0.0280694418614412 -0.1158808772978774 -0.009017708948581728 0.2625639742702952 
0.0167894220815192 -0.0396384658688315 -0.1458902874695019 0.00115420177690407 -0.2050152751616008 0.005116051374668668 0.1437251866102716 
0.1430048577145406 0.08342528703650345 -0.03769675160952072 -0.08743061506783106 -0.06007020758190692 -0.06369161533313754 -0.1109806272327336 
0.07863752989968219 0.02721574517890518 -0.07991054518187557 0.0270258957340853 -0.003370396072231884 -0.04098826966680812 -0.0911183295687214 
0.06806486211025213 0.02845104851976634 -0.03173617598266662 -0.005637100493163385 -0.0466810514615342 -0.0194187901029785 -0.1773081169238843 
-0.0007161972452294304 -0.01822144250471202 0.04672648280736629 0.02219446487203361 -0.06425550917848842 -0.05784659779597859 0.1458019016451376 
-0.02962624080908194 -0.008927429872817473 -0.1238132888201427 0.04721832074900281 0.06137287866480669 -0.06864580962901348 0.1277523945955014 
-0.02696591965092415 -0.05505070684021904 0.0156954050772946 -0.07782672043538634 0.04585399756214342 -0.01084132904175645 0.08420977044406716 
-0.01988082264309907 0.07944907608800873 -0.01783095273437301 -0.003673695991542818 -0.01005267861177864 -0.01092535923626748 -0.1548926571633428 
-0.02345874598778341 0.01899437338180284 0.01566816022010796 0.04354928627237033 0.03516600091397273 0.01062473826031867 -0.122804949688163 
-0.06134529501676181 -0.008385785174867814 0.01168223488407747 0.06768845479211374 -0.03576050603086823 0.003041684418560074 -0.07533067577681575 
-0.01128874674383439 -0.01899377533589777 0.01778034688084051 0.06317777515381963 -0.02867576890582679 0.01360889673643466 0.03260813628241049 
0.01193299610468396 -0.03764099894488986 -0.08609721878794398 0.1073752579770919 0.0403395239904677 0.04496537931013841 -0.008462625837471111 
-0.05011210183042567 -0.03850384370767703 -0.04279295579776952 -0.08399856398199335 0.02359860957236259 0.01793288947552177 0.1262390303834309 
-0.003949499762732528 -0.006016194567569385 -0.01114742796860549 0.07629689704899666 0.008247686253628272 0.003755797861139833 -0.1594716450151487 
-0.0161381714609179 0.03119691760559477 0.0126262293426286 -0.0147180141933876 0.0204478905347356 -0.001299497032294882 -0.0381864165669715 
-0.01852890417274746 0.01581900568416385 0.07826108837773607 -0.06694971824817239 0.005927398338069592 0.001290686804690976 -0.07120601853709294 
0.0007993846405878502 -0.04181633621464212 0.1372742167257399 -0.03122652812813084 0.01063840636650013 -0.05460925586181781 -0.09160940776588314 
0.02321918099841865 -0.02023501417978371 0.02672700316192963 0.0504619330258606 0.01180050434300059 -0.05337517486892883 -0.005697835003681088 
0.009944538190273348 -0.06897741066261058 -0.01919935018544231 0.1357470617947869 0.04637464638763973 -0.007929358961601086 -0.1016530741195624 
0.02601081084069166 0.002027311326350993 0.08601490444822936 -0.02827554949900922 0.005596838712815482 -0.0294843666452273 -0.1432767940289063 
0.01261338492989879 -0.07698553676654342 0.01414397375931846 -0.01473880280189091 -0.04838462449724412 0.0282385461597794 0.116703823376966 
-0.00393058907297751 -0.01920860358120537 -0.0313649611954536 0.008399751828829108 0.001494024517326409 0.01680523396739973 0.06595661537834323 
-0.02518083865367867 0.01439064249656715 0.02775783875063273 -0.1366703486268597 -0.03558419568201845 -0.02236396748163431 0.09697829751475638 
-0.02678146895039456 0.008114892820502441 0.06579275566602368 -0.1150507706234058 0.01088026339756873 -0.02801868978889743 -0.08393409539998796 
-0.0039469746029226 -0.02673578388434401 -0.008684039168477027 -0.002547350281760524 0.03732001451089236 -0.01214263212009467 -0.06612685402758606 
-0.06090094487168305 -0.04899495733583666 0.01666073785598672 0.003576165003559658 7.663282454717787e-05 -0.02724053670953703 0.05871812321997265 
-0.0282665579639014 0.02295373620185545 0.005191517986270145 0.04498848591083109 0.01673704551761755 0.005293400383627658 -0.05442679216797646 
-0.04079528933793079 0.01585732786949482 0.006579497695152129 -0.05588269468424713 0.0113484905505279 0.03188344784738952 0.09048749649262668 
-0.03234357878351716 -0.01758497971689764 0.03030940593406919 -0.01606927492121433 0.006339739789339611 0.0236826272566614 0.01375181652247752 
0.004740741228319171 -0.04848888377097366 0.09842427906611863 -0.1571183035726192 -0.01036748188372776 0.00157870754643479 -0.0003817052600795982 
0.005840866304175975 0.01577562299056185 0.06061778137818657 0.04782093437295176 0.03019218884150583 -0.01320276768482053 -0.099735546772836 
-0.0103302991053585 0.04124793766097132 0.03710414584077473 0.01122554349448452 0.005145299339139868 0.04958121600622288 -0.1085715360571386 
-0.003905653678096492 0.06054326398823961 0.01441343590130197 -0.03770637992741262 0.0757976434035664 -0.01201846276010467 -0.1103914323218011 
0.0103284547383217 -0.05710758151092943 -0.0415960389421644 0.06864122225107122 -0.007046377454115696 0.01546314875889756 0.03869059657629383 
-0.004191532524303284 0.02129719588911302 0.09107476921756695 0.01289525656435986 -0.03482535853857638 0.0009341185553410399 -0.1100978014133586 
0.0003906172532807027 -0.01080473871992853 0.06134448705070129 0.009367736351518227 -0.02031519032702096 -0.001006785564921845 -0.03787714778270832 
0.05225247302020353 -0.0211633157952303 0.01757534193844512 -0.01191674846998741 -0.04195876890573208 -0.00186870780881762 0.0009956476083515843 
-0.02458329912463872 0.003794210578071907 -0.01294966786791646 0.009445555672137085 -0.01564526196259261 -0.0005004624341217165 -0.07361065530199018 
-0.06849933513124212 0.009921860859348609 -0.04714533689391812 -0.07312105190427175 -0.01268135708852624 0.0137979242825939 0.03457779629483734 
0.0342897129109256 0.06199865162763014 -0.04822970187254461 0.006178716966988369 0.08238181199302293 -0.02975685554420445 -0.01910316673051174 
-0.00534455959449732 -0.02336766495230363 -0.008577455868779591 0.006834125471373212 0.002544340161322605 -0.010776409505338 -0.02826433553086015 
-0.01489671068648529 -0.0275783923687976 -0.03969105031777889 0.08621592812632564 0.02645843577513116 -0.001744584957707262 -0.008089943820769286 
-0.009928348869698117 -0.0643849527292495 0.01452172282046127 0.0544586753382045 -0.02848292115444641 -0.01503638601801212 -0.01969927265252988 
0.01416548598157237 -0.04500818127185931 0.06263989926603823 -0.03431553934842795 0.06409322203027364 -0.01422132388745906 -0.02649023893994265 
0.09750537655355719 0.001568562930703999 -0.007184831737823218 -0.1400831459818878 0.08775286389870092 -0.008725266703700467 0.03906145655056757 
-0.01540087593932628 0.1199900838969792 -0.004433611780193882 -0.08053350266933879 -0.0006346848290846666 -0.0210072994741008 0.05564918008144102 
0.0005502297425003484 -0.00830689574550196 -0.02108045291590257 0.009912275219157062 -0.01192345834321472 -0.01335479569472902 0.07054581714497928 
-0.009240522883011939 0.05478888459041585 0.02856436874406368 -0.03520863268392315 0.01234447853702883 -0.006881608214319113 -0.01594251623758029 
-0.05869643994763137 -0.0378569193402811 -0.01201758758890431 0.03088727063554246 -0.007870977999436706 0.0002813057865989783 0.1049393294761678 
-0.03708854784288527 -0.08567773408324038 0.09317077165736201 -0.05480987135289948 -0.01416765226774465 0.03936999185528708 0.06224175368977682 
0.007622670088409729 -0.02309357266941311 -0.04456326597336522 -0.04004867954189265 -0.05021393801001645 -0.001145412689763625 -0.02487654596170968 
-0.01813339521393481 0.03428675622041134 0.01016342746980801 -0.004340855824547954 -0.02126602411750495 0.03630584497300175 -0.01813535316410287 
0.002759519961500763 0.009806105656380151 -0.02527025127278309 0.0515108504868852 0.06506550233625616 -0.01878230848731094 -0.09932646943108418 
0.04193792554755393 -0.0357438089431349 -0.02182219883472044 0.06137081800137266 0.02292267203828404 0.006121948874437141 0.03525504360574824 
-0.009016018026858754 0.02331019915063852 -0.01415121713558444 0.02847821449774464 0.003124795716552717 -0.005668757852449975 0.02794179229528123 
0.0003741290926925162 -0.03133429165910444 0.09978903773873844 -0.02703165364498767 0.01030791797053421 -0.0225641621188303 -0.04260654093101544 
0.05739839549181213 -0.01747626386098133 -0.03400772705185782 0.01741405356917581 -0.01653473244239241 0.0250776679258168 -0.07494500473609725 
0.01229681345761983 -0.01045936689482963 -0.0593301114613289 0.04868468346043872 -0.06555245969459655 0.04366416678534944 0.03781337064658398 
0.02666714623415713 -0.1179844992387468 -0.01641044937159973 -0.04534063593340058 -0.01785832948379072 0.05119767677949931 -0.02640475338086357 
-0.01067018874140785 -0.03226222319288809 0.01242650193908159 -0.01356537147935734 -0.04665018544660234 -0.01212144056161703 0.09781635317468353 
-0.0291787559627484 -0.002677410716530517 -0.03074431004232044 0.0007382955957192992 -0.008736290650662382 -0.003383342029526246 0.05695193976446764 
-0.005924852437325932 0.003875008133394176 0.0140727082959558 -0.0444670736435329 0.006178208496692801 -0.001585400269458653 0.04677875877993667 
-0.06466785892482781 0.01756756445253784 0.03467268493404546 -0.01383138596683743 0.0183029569683258 -0.003851355625861346 0.02043386102231436 
-0.007380920386679053 -0.04351531344507845 0.02499778631222973 -0.02653567976661578 0.05671715650296891 -0.01497150954186363 -0.05143701636200699 
0.06372014608495398 -0.01838481575919532 0.03638941711265873 0.001909143512704716 0.02988432258252131 0.00350082065974467 -0.08357767811595865 
-0.04485462579367059 -0.0518500531700721 -0.0276483227497012 -0.0202814694898329 0.0184259227819007 0.007042697064651305 -0.01672267677970015 
0.01534111012518032 -0.0119608704710121 -0.008283047329468465 -0.01810341089377567 -0.01528349732236765 0.007127422317276377 -0.002359736351802184 
-0.009128775232380331 -0.01475231457446295 0.00531130188602897 -0.0005692794994686457 0.03589607834116176 0.004657029081642759 -0.09589086923242958 
-0.008065085723358524 -0.02730194223346764 -0.006741252445776199 -0.00775610423753063 0.009780964970127669 -0.009615189119367141 -0.02912130704945206 
-0.01396722675412345 0.007301604012364089 -0.05645962189018424 -0.06826891348720265 0.05714074567371948 0.004879163376249408 -0.1368781836320823 
0.05621093376815386 -0.03547428800356524 0.02522829895496473 -0.07341081731793268 0.03244310751964634 0.01574081688904507 -0.04874200211550664 
0.06762725330042159 0.05233610720474533 -0.01443119843280898 -0.1801639055415391 0.01444932003627404 -0.01626861081129664 0.01010287440553063 
-0.1259920087943575 0.07372015303363406 -0.07911031741452294 -0.01325543643980402 -0.05102415284183005 -0.07000076704333912 0.2935382428371245 
-0.01546168453853407 0.01594453330684387 -0.03334393912300569 -0.01352017170218557 0.01050467309988413 -0.02038151978329975 0.04191673895091185 
0.007981766559370071 0.01220590490803347 0.003790103085538633 -0.04755164159267933 0.006119796088884196 0.0125458599923838 0.03667298368562307 
0.01696947764694747 0.01588534612219525 -0.03420150986201569 0.04206106648624577 0.02097735543596814 0.01104663201640781 0.02534801351757205 
0.03432177281975285 0.06761155714240809 -0.02031659168397151 -0.01884962944451187 -0.02820176615297738 -0.03832405170483333 0.0174672384946626 
-0.06372494389518069 0.08060721266580596 0.009495263225942931 -0.04776020055053409 -0.06169381616825576 -0.01328002622160267 0.052157005116705 
0.003083347388594583 -0.04782322499317394 0.02576787192492794 0.09913875651744146 0.05214925223892936 -0.008151639914566711 -0.05025234317160543 
0.06002059035290245 -0.04155251015028411 -0.004906497966971859 -0.02074986921084961 0.02601327043574788 -0.01217594483035777 -0.1180491945236839 
0.03243479962389289 -0.0148999976197857 0.01615299630077799 -0.06199021205870935 -0.01681400107020049 -0.01456464506469358 -0.02026384869415185 
-0.01511645565048836 0.0271127952779389 0.04148425761993944 -0.05683265516922477 0.00340579825238171 -0.00107293105898177 0.06618434191299655 
-0.02875050020917963 0.03722226821401133 0.01759434999179652 0.02848838761453414 0.03582170536496213 -0.03285643846476285 0.02403326697655484 
-0.01589851309009311 0.02448020917569384 -0.06813861889087515 0.03372684093577945 -0.06632740166237407 0.01182769763031918 -0.006910472811969689 
-0.06551683333549366 0.06972623003213305 0.04889481479359616 -0.05723522001072401 0.03532128166091355 -0.02731411079854774 -0.0759369162802494 
0.007898684797682569 -0.05142713113447175 0.03730661980339323 0.02957912992975521 0.00659634260331244 0.02956984878144506 -0.06967170212110553 
-0.02815318119298561 -0.03155754400646902 0.01347133384640485 -0.03085476240976236 0.01484671772699357 0.01335145954370464 -0.0422489904197251 
-0.007283850298790533 -0.0125868666749536 0.01345205119256913 0.03789679668632779 -0.01308586011937875 0.01634809250188605 -0.05377204223152841 
-0.07881759770751876 0.04097129417672426 -0.04735811236533834 0.01390063574580506 0.09119610442988445 0.01351442169751016 -0.09570541720170488 
-0.02079413063617598 0.03283774319112299 -0.01717141182195742 0.05362662691463954 -0.01387334206238727 0.004897861055976193 -0.08037694374855169 
0.06836504602429511 -0.009141920404614564 -0.0530448853145857 -0.03143823937536247 0.06856329982276455 -0.02626677670805386 -0.1462198806383253 
0.08193358657915271 -0.07994179644269636 -0.008300169697807386 -0.1587480300468531 -0.008892187647176968 0.006772950847599717 0.0205420954044277 
-0.02497848772585947 0.02984695594262825 -0.009600938477834128 -0.0007538151580402926 -0.01163850436086807 0.002132020402451223 -0.01056650692707821 
-0.03802370000613819 0.02010912873175325 -0.009696174234485704 0.02138404612995248 -0.02192084051768813 -0.01463503202317524 0.05991894435281431 
-0.03579180066943041 0.05630238499368689 0.04204619482650459 0.006987629562148144 -0.00237236849602666 -0.08135665933725118 -0.04097886672276182 
-0.00568428503673232 -0.04444812827324083 -0.07299168924983764 -0.03369711193922123 -0.02391001339870355 0.009226158604105365 0.003738657035622914 
0.01948784726265 0.04352133593888947 -0.1145750835140588 0.0720535349080247 0.06462024667775954 0.06650117952667246 -0.001058519066647408 
0.004000444501962704 -0.03043683876193825 0.03573170385082899 -0.05900475217252818 0.07044636506454167 0.02182890836028106 -0.05126228900083121 
0.019437178896717 -0.001824649107828688 0.0318352029736305 0.02901924284081995 -0.02273275156514113 -0.002452327350265088 -0.08534522009204254 
-0.002103450921955479 -0.007460872143103252 0.01102127641531613 0.002110267804142192 -0.0167577306129842 0.01806490874996907 -0.06078657693119072 
0.005393508748346456 -0.01028237966746458 -0.04172179816423645 0.01732383683731641 -0.008281440605896495 0.01288997025735444 0.03071303372785636 
-0.005113397119026083 -0.03096884382418822 -0.0836572699944793 0.1545564740372136 -0.01153191207282667 0.02477809194312484 0.07245320505639059 
-0.05684888302781828 0.0580265840443475 -0.04490141872557873 0.04247500075668188 0.06410402129049884 -0.05054876003544322 -0.1427326412517264 
-0.06164203536697558 0.02028762783697112 -0.05832393790167623 0.01563708053949084 -0.07334195826780461 -0.05685413469330661 0.1173464635734061 
0.01164169918355519 0.04803046960188756 -0.03196917991208323 -0.01875587731435194 -0.1982318813508901 0.04418232310467028 0.1138915710500971 
0.1227163195847426 0.05362334863717486 -0.08163885742994097 -0.07892203548706152 -0.04767514515003479 -0.03842691250068644 -0.02291315654565013 
0.07514463007348675 0.01699800984213488 -0.03982641218612996 -0.01472712801855834 0.009592756509469124 -0.03160132565585571 -0.06100364021288347 
0.0337213092000429 0.03476935825192817 -0.04540276056378548 -0.02889125655505547 -0.01074282690489794 -0.01572864463543688 -0.183282182250143 
0.01158384806210034 -0.03057203856685943 0.01500232828154837 -0.07423047717441759 -0.05714534010816423 -0.05021880224310107 0.1487520042017069 
-0.08016954924423314 0.01694354956101752 -0.05594015692416136 -0.09911573463226483 0.09177274329722797 -0.02312697254010551 -0.02933089995296418 
0.005790450951452608 0.04862559829084599 0.04031289202888599 0.02320013603429212 0.05079895306434912 0.04613087062578221 -0.1258392927383015 
-0.03990708246395832 0.02978326632475595 0.02191354932270175 0.0371008066122078 -0.05094579610778933 -0.01624954296111935 0.001073024224544925 
-0.02227274471767408 -0.01255713262322261 0.03717342643653167 -0.09719126451680433 -0.03896519816516619 0.02517250736615912 0.1057301776750348 
-0.02762732186973961 -0.0148094773769006 0.05635772074184506 -0.02776983329218935 -0.005703782134285646 -0.0004662658606630896 0.09170067987671665 
-0.01341430667904419 -0.03809142267249159 -0.01805345366612029 0.0147864740345775 0.008944593362462635 -0.007150843813939289 0.07746443786077306 
-0.01270910287195863 0.03537397253213066 0.02527410189682317 -0.05126074848971515 -0.008942971611950826 -0.04029362877033496 0.1725277538930748 
0.1218967908104262 0.00278673068191559 -0.1348696277199025 0.004599093452753562 -0.04188122864217252 -0.08150765532116838 -0.02887663713025204 
-0.06561312550029104 -0.006325729395232636 -0.04412881289025752 0.0721625823432774 -0.1324110709851615 0.0366930882397123 0.04035219699551051 
-0.0388634694146951 0.01783761255572753 0.02804523671026816 -0.03914850906243946 -0.1457412449061287 -0.05800207801933056 0.1514532609211821 
0.01628685088812485 0.03451734330124378 0.04726512281860446 -0.02423467696186102 -0.01583691833914573 -0.05790022985163988 -0.04184307601708855 
0.02067622857777277 0.02487001713092394 -0.03723796272006562 0.0875854895075082 0.05442350012014683 -0.04150541363731639 -0.1301567787334172 
-0.1027509694299218 -0.07298989900244052 -0.02067791740485064 0.1088175015988691 0.002811656440429899 -0.01205010878527885 0.1443775880306507 
-0.01974764919689149 -0.03666412915356484 -0.1034005358943886 0.01479679181053725 0.04910263619880131 0.004332212993410138 -0.0327934884476655 
-0.002505604164188128 0.003387471107496117 -0.03938065378624564 0.106790464293102 -0.01108972664570142 -0.01452029894172866 0.01742659672314318 
-0.003433317670775225 -0.07424361025036867 0.01557173853959905 0.01210211220117428 -0.03461809669629032 0.04791101527795778 0.07680167535877498 
0.01681209034270897 -0.02736287133613814 -0.01321461481546395 -0.01768078384130925 -0.01149808116584356 0.01223179623363767 0.01957598336027366 
-0.005955600875812134 0.002973703152240976 0.03130477931780715 -0.1207142926159257 -0.05318779129828211 0.008418064360424731 0.1069408847047069 
0.012089891178709 0.00480266998578716 0.01251622450555449 -0.138017307114313 -0.01601918236151626 0.001256030237741508 0.01774158836570872 
-0.01543982761999145 0.01036961753211302 0.05840933530524712 -0.0512344541120491 0.0001304232263179652 -0.04167741676687371 0.0336876020336738 
-0.09195488641316704 -0.007985078234420392 0.1266821169564502 -0.02256023119937708 0.01334423299959684 -0.03598904803192247 0.08059720874653389 
0.01032848396960218 -0.03511351382970473 -0.01273779904718403 0.04168770899303748 0.001365796858816065 -0.007777190740363981 -0.1578886793438034 
-0.04844686040870817 0.01010439173662241 0.009426716800270091 -0.005449096141218465 0.02079799930477955 0.03384389853096052 -0.04387744679233729 
-0.02018519437925509 -0.0143514766698464 -0.005936363298043678 -0.06663087741230733 0.005932064706524034 0.04924359870372105 0.03906738533208032 
0.001174614678386591 -0.04815100591473458 0.08328295200980682 -0.1185553948581775 0.008387484665978232 -0.003609588155329155 -0.02112373396611198 
0.05452154334719474 -0.003403550862428252 -0.03718089037235516 0.09834669120694735 0.01545594372546631 -0.007674807281516663 -0.1255141141736062 
0.06964760308618867 0.03214108593920241 -0.002418293878171729 0.1112958163324785 -0.008959671705471222 0.00943848444409452 -0.0477215893062626 
-0.004823347083182798 -0.001821218051705696 0.02709607343574535 -0.06563845504810507 0.05728914592937986 -0.02555405532545214 -0.1869493108341588 
0.04563467562457255 -0.02271493554710583 -0.03516722249325151 0.1382737854105531 0.005516359599740597 0.002316877096037663 -0.02316631701992959 
-0.01536404299472731 0.006469752302463377 0.05055251143949753 -0.01329367828866182 -0.03412971663361233 -0.01178050801792085 -0.04276151410422141 
-0.01292317725201043 0.01283928583468732 0.1113527694005393 -0.03409235828959706 -0.04110896938392434 -0.01898397589523773 0.01529356227492426 
0.0351769221722649 -0.05140180235395089 -0.02858747144296236 0.0310480378867272 -0.01390161167459562 0.01380173379923588 -0.02684578668159246 
0.02592571361912055 -0.02202396853646781 -0.05817682405553935 -0.00862125233381078 -0.01288350207345751 -0.001385987945200782 0.01402603648273969 
-0.02365969406458683 -0.0489907430814419 -0.06797340735466857 -0.03836094808145583 0.02800873191064326 0.01138235140943867 -0.09126653074568331 
-0.003296197395877708 0.06390369229354922 -0.05943338682913519 0.05444283566925602 0.002990911616748284 -0.04738566758082742 0.002906255185605692 
-0.002756045662348466 -0.03624620700335057 -0.01147547825193316 0.04522609665729943 0.01435138924347238 0.01570899655971561 -0.003221304823385931 
-0.0259846870645719 -0.03106782310328552 0.01922816185350528 0.07795705282388675 0.03660005246862696 -0.003168037872216417 -0.07269606356192487 
-0.005693803479725736 -0.09251960377468769 -0.02181427829802302 0.06951990923419481 -0.01495169445415562 0.01265272400424087 -0.09049246275633915 
-0.05142096919413996 0.007805425646994737 0.03926703460193083 0.01506467176057359 0.06439411570587952 0.0075282516410834 0.04966128354400737 
0.04969952747758882 0.02258039823866055 0.06344288903002998 -9.381030997488304e-05 0.0580617716827074 -0.02351261314579088 0.02994370026284774 
0.07422380125681087 0.04464236315479514 -0.05457146427874523 -0.0387750265149826 -0.01391189891899589 0.03318861847003123 -0.08500931388074665 
-0.03942406428866843 0.06373525438741551 -0.07205425242655714 0.01908996107594518 0.1589906863222742 -0.01945664746350841 -0.07707261398354304 
-0.002691214234617685 -0.03375360932750798 0.0710409001003009 -0.1126743294202071 0.07876980766428392 -0.007103342716948589 0.01982068947193273 
-0.01560458857958454 0.05600196973035425 -0.00479200286333754 0.03952465848877536 -0.0478460175357145 -0.01656845573598228 0.142200164505545 
-0.00778783393623542 0.005940209239621639 0.06964742494052846 0.01252229093647078 -0.01710635869829111 -0.03079065662693931 -0.04695527268807088 
0.02790954766700593 -0.008076653667169184 0.03634355255210051 0.04727465115475824 0.01688257800460068 0.007642118631596442 -0.05655963947057063 
0.04653428138467722 -0.09651006101810505 0.03256494767385168 0.01203382576257626 0.0148603553542144 0.0139362998639671 0.1150479421265792 
-0.04791037945958173 0.03939908520422724 -0.08395542665964019 0.08627526412080401 0.05669397048824538 0.01769754047669942 -0.1181809654766933 
-0.04996588347793291 -0.005044644601472048 -0.06088668011052277 -0.006194940815088576 -0.01963317294314372 0.02647856845293491 -0.07338214710245444 
-0.03298252359225939 0.03506845189725523 -0.0310949480060623 -0.01087993535365982 -0.03613935151705365 0.006211598615555619 -0.06670088000236855 
-0.02281798957030766 0.008250323745474549 0.1118597947005979 -0.1359374322405096 -0.0199252433034485 -0.005830000748448495 0.0472192022399714 
0.016237063407164 0.0004432461283195687 0.04885882171156314 0.1154060419276863 -0.006158363297395632 -0.02341214001406474 -0.02126841118921161 
0.01683409116927813 -0.08644603225389599 -0.009148487250487961 0.1661518385731104 -0.04589357583569603 0.008269004973381327 0.06680687100853744 
0.00880825531717414 -0.09768370467407898 -0.09821691159535598 0.04836727844073294 0.06617089997157054 0.03909627619336399 -0.1502285294017192 
0.03160724646026616 -0.05721223673416015 -0.0371466802562574 0.04133535907763222 -0.05446837115044962 -0.02775315266481885 0.0288025012665453 
-0.009364089778492101 0.01075390702186759 -0.002985359689656381 0.02702907452328829 -0.02220377768080598 -0.00916377303352482 0.02754278801182489 
0.01154814910468271 0.0140369451361979 -0.009290557350784353 -0.04044300790164004 -0.008251015402305927 -0.006589402101240874 0.005773409105117465 
-0.03304357239756673 0.03451656624001895 0.04129335559010872 -0.01514679583889529 -0.003590674871409892 0.003528003464817319 -0.04302677882377542 
-0.1507758905097962 -0.0144507915771346 -0.01143852469120243 0.04523636334364249 0.1061423410790195 0.01278258607942049 -0.0615240511437186 
-0.0001827142557623606 -0.01347998273603836 0.06060452597384755 -0.01957000156443407 -0.02194474132369019 0.007076389200935341 0.04886114652425607 
0.06275744048100924 -0.009612532150286228 -0.05882855029634387 0.02162827140685071 0.07748568636605573 0.01661272670850454 -0.2316463405151158 
-0.01126096140544931 -0.01478750741309721 -0.01634207173098732 -0.008160253926370561 0.003568880149367944 -0.001827659687981911 0.05280849321721071 
0.01465407441338144 -0.01668705158852034 -0.006574570892522895 0.02750463657113054 0.04179536453777951 -0.0122638744741201 -0.09621771558590142 
-0.007276713085643033 -0.03728102950037719 -0.01212529742584339 0.02851766965461337 0.04783158412804617 0.02255725472062202 -0.05489215379678102 
0.006933116686766828 -0.05212138215629712 -0.04254319273617042 -0.009061789731410676 0.0751317380743471 0.00220010703835136 -0.176126773575566 
-0.03217269296649813 0.04390922276362853 0.04885276597048608 -0.02071266812711248 -0.009287560401816651 0.02930859403501831 -0.03764603933104738 
-0.03696514082985704 0.02271436855142458 0.1650998329151891 -0.04010742306457645 -0.06891347070258609 0.006378338521649315 0.1398381952839619 
-0.1042837529863378 0.07561139540107677 -0.05497099718942221 0.1004595036224442 -0.0686784070472187 0.003943124740509195 0.1871499579312171 
-0.02413303444773029 0.02356210377844248 -0.02115333041086388 -0.007429674628209834 0.005264323310180925 -0.01719459304429815 0.04431759782145908 
-0.005585051486022204 0.002731486994614295 -0.0341839942152272 -0.01566797434367036 0.01713393796365019 0.01306850929508275 0.022581067174224 
0.01570700405818963 0.01597583931510248 -0.01848782015084609 0.006755366088391156 -0.007027391831805206 -0.001143516287992714 -0.0128583378337577 
0.06948163747329628 0.001483862535875224 -0.0002051119468577352 -0.004344858176864446 -0.003551070912268783 -0.008150765503233926 -0.05412595564476819 
0.006449570105557202 0.05187276965393177 0.04399202095465483 0.03234853511615293 -0.009168328451219511 -0.004818537935120528 -0.1191593883644247 
-0.05461550781010195 0.02275185548862081 0.0443248814168656 0.06964464908520994 0.04031336063074318 0.001073248337726815 -0.122254409587602 
0.02153118221522048 -0.06396813024188452 -6.723090057277898e-05 0.009054479675914221 -0.01815279268504201 0.00389129013490079 -0.04457650341243425 
0.02388393678050713 -0.01903822603963048 -0.01247848388220102 -0.004320348629175979 -0.008919552196936112 -0.009757011964122993 -0.01804124431038402 
-0.01142413777327359 -0.009250095300771389 0.02088099078225552 -0.02283160321060392 0.01146586771538501 -0.008343947167120037 0.1052521317359903 
-0.01294128317478702 -0.0243389419741423 0.01348904064272293 0.1075518342403816 0.01268326316926297 -0.008831896981843364 0.02599953882120888 
-0.07211048112922491 -0.01276526672041469 0.07709964949845786 -0.06900203362790043 -0.03119393301415845 0.02181584684045257 -0.01278694682058442 
-0.02722459918445375 0.06678406484826718 -0.004038586675396343 -0.03040537203073407 0.0189877147820688 -0.02222095559606481 -0.1053595387259071 
-0.006091047358761323 0.05277991333801411 -0.08594874810213018 -0.113622372078118 0.02648241491221625 0.03046750292407325 0.01132353113556337 
-0.01364449976803378 0.01431793615574536 0.04210397931296189 -0.01201933197764154 0.01117411662908741 -0.0001147271499403686 -0.03167039428980773 
0.008235537079951423 0.02070510565274503 0.02371804184693467 -0.04112436522255963 -0.002413694590295365 0.0005874731770966178 -0.01334530237876293 
-0.01729341637047877 0.01293275230981283 0.03067980307562454 -0.05038074509760974 0.01078419835269096 0.002345381541642876 0.03651854455672475 
-0.03220974288851734 0.04379288678575097 0.03850629474781765 0.02502730774654558 -0.01165906911072676 -0.02273240603574649 -0.07919261564510209 
0.06580436952293772 0.007594119034914558 0.06808062019159664 0.06010788492315845 0.007267392842836454 -0.02719661781746101 -0.0746616097587843 
-0.01721536251659651 -0.001505742229636712 0.02370090716012504 0.03586094447317493 0.005201675702653433 0.019804574570955 -0.08244175492861187 
-0.03266946941366943 -0.05641848157328284 0.006726420090807152 0.001129924061941324 0.0007362970326689871 0.04577508009640847 -0.002512492281214634 
-0.03829985444536002 -0.007598021476242653 0.01531759455880386 -0.02700557277492198 0.009460920409852407 0.01448013795894643 0.0267164154035913 
0.00377765279893925 -0.02363696436376143 -0.01311939744196641 -0.01610805946344296 0.009793324024956238 -0.01339230177894047 0.01797384423349961 
0.0005502246334868403 0.02366029421759203 0.004703160288882204 -0.0208988957000404 -0.01164952414803542 -0.02674541721210806 0.01798123502201048 
-0.04025061000385415 0.009928486825579497 -0.02333638173687961 -0.002978214098860329 0.03004341562757994 0.01555842654542197 0.006517857205358017 
-0.02627650401718777 -0.006136739705792286 -0.08241952843317957 -0.00762824444825133 0.004788584486072174 -0.03124247071752679 -0.05752119073292584 
-0.005096204250224229 0.01979964557167842 0.06454504615806089 0.03718461336990548 -0.01030419008127585 -0.0002066092303001855 -0.06627472224394379 
0.01207332978597291 -0.01206024469274516 0.003843327152999737 0.001824113803822975 -0.004708416608500414 0.01661626037612778 -0.06400723968656179 
0.005681708708474774 -0.001783927610914516 -0.04229886288183746 0.0009019040581280338 0.00556163703693431 0.01534452233743453 0.0400574168750687 
-0.05610343660446663 0.01675638693478762 -0.04295441718920029 0.1834129288772722 -0.05852549773065501 0.006196137020289925 0.05976068309787373 
0.09174123945996715 0.03543390238111484 -0.02444998353488692 0.08770233988741286 -0.008007858834766728 -0.02728152484018409 -0.181406376448459 
-0.03072037442303558 -0.01756031150847581 0.01220315588427041 0.01349662397277236 -0.08799315959913599 -0.02370731916328169 0.001434904043612413 
-0.02478623987509419 -0.03491304976641446 0.008419818713942659 -0.04917906445935811 -0.0641657798852468 -0.01954467817694175 0.05710648585054728 
0.0833524935616 0.002047359721792142 -0.04474034295664175 -0.06936536960695634 -0.01984474195285487 -0.01664735848760862 0.035065902067914 
0.05734533704645373 0.02742551641755737 -0.03581621620892667 -0.02130344275200177 -0.006378031269955118 -0.01219014283560071 -0.04042157381042374 
-0.009267315703761511 -0.006826810689086473 -0.03381849715614826 -0.1040010576767166 0.01250171365096858 -0.01649509384359985 -0.06007711125299653 
0.02613833724371168 -0.006003232524951474 -0.01896078823646286 -0.03300245591333815 0.09257816716237176 -0.06563321255808642 -0.07809385801138995 
-0.04318342941798341 -0.09139440637360446 0.04246542342691503 -0.07151926011160878 0.07747033706344646 0.01404617884952304 -0.07174962856592432 
0.01031912208672519 -0.05695615959105133 0.0211178061624971 0.09778381909286805 -0.03856524844989626 0.01792375632887807 0.0660483711643997 
-0.01998436889434815 0.003871035996451569 0.04249553567617126 0.06462973354625708 -0.0552911602989918 0.0004136196914906927 -0.01161205911009786 
-0.01664595143592243 -0.01372087878540192 0.05965734475573502 -0.071143587670759 -0.0299228770243828 -0.001963197736646925 0.04227220992525253 
-0.01004695878176608 -0.009677772031077428 0.08776186394447018 -0.0196507616722539 -0.008813822511423404 -0.01646558561377255 -0.01330739179311305 
-0.04381404644206396 -0.02758681068386729 0.02982861832779362 0.02927408702069934 -0.004257964241371628 -0.01963566960971103 0.02785998560139551 
0.02122604721774933 0.03714563396568397 0.04116092598826585 -0.03134743510647829 0.02172254698675014 -0.04496561968967589 0.06003373719599708 
0.09787223654466409 -0.005248453233929198 -0.1400658522537192 -0.05798164299238037 0.009991803553364591 -0.03608905037757362 -0.005001458912610488 
-0.0001944542531078872 0.007403741577168697 -0.1246053249517507 -0.01852619427307942 -0.183267226082875 0.0219318994546132 0.2450820814492461 
-0.0470319330246909 -0.004494051050950539 0.09407512935990824 -0.0602744537894736 -0.1323914764687251 -0.05454063794159289 0.2010655206805192 
0.02687769152594497 0.01857603549205325 0.0483670496889955 0.08434321658096271 0.01436953095191254 -0.04740580038223894 -0.07245848831029754 
0.05343311922709341 0.02635466361508973 0.01484794440800738 0.05137090144099207 0.003425165129528354 -0.03913602270896856 -0.07588051796958033 
-0.05607820696675054 -0.0310728256157317 -0.02399597295781994 -0.04283530327395236 -0.005067703906473202 -0.01663483124940224 0.2039224788463974 
-0.04597079466719959 -0.0245276112287355 -0.1164777153542057 -0.03532014298353867 0.07924561435650641 -0.02300089367999753 -0.05236064093537258 
-0.06973154703909672 0.06453845162476092 0.01234126671731997 -0.03887330158881558 -0.009687285304149548 0.01998988388931211 -0.05502553651160565 
-0.01194227253339545 -0.0229994150777805 0.1378492872694884 -0.162031672110579 0.008489458395912355 0.007100175973786605 0.02541113435560924 
-0.04001771798688288 -0.05512485243056597 0.005991921469743386 0.003684627783194134 -0.008909564383840739 -0.01037994330129939 0.1173832962936279 
-0.02075286617191165 -0.04970592815048852 0.00906573972984648 -0.03319217015637375 -0.0197099647312331 7.959537052787475e-05 0.1112375300678402 
-0.01288267685001306 -0.0043234265981505 -0.01553622772156156 -0.03356250285867823 0.02612057321279292 -0.02347666369356716 -0.009420206912090872 
-0.02444620162349315 0.01639589805672263 0.06618421684610526 -0.03459848315986046 0.06415605210730879 -0.04239714445172735 -0.07120788550284612 
0.04088599654091307 0.09359851987279919 0.008928557729526337 -0.09844962128436217 0.04126502134951337 -0.0307860422243024 -0.1090554761029246 
-0.01454194525582373 0.08346927392497777 -0.1876975237784827 -0.05838195750276894 -0.08243096102793708 0.02239228608420941 -0.1016050163618607 
-0.09921703169985731 -0.03604434626610364 0.03564320129932735 -0.09622158353270195 -0.1632079265953407 0.005415611837453442 0.1753882955799251 
0.02902685447380843 0.01597786322935697 0.01325960129069972 -0.07177380464084139 -0.0607534110507417 -0.0154301732938298 0.1291880365468151 
-0.0299778365388169 -0.01791643879092823 0.02413479542183633 0.1400386986666848 -0.07026919019835617 -0.006597122175111473 -0.1161481751204812 
-0.01886370677230657 -0.05043499727027898 -0.08964111623937447 0.1389338814117675 -0.007317531594485083 -0.04025124566020525 0.01932582817421779 
-0.04632727062944472 -0.06451493510599865 0.004358253559170116 0.03507173445237234 -0.02518383932340806 -0.02784884656899463 0.09334849433919154 
-0.006883507386372616 -0.07297791059299544 -0.001968025197308175 0.03509256710942955 -0.05091032878882205 0.04134310132967731 0.002356704549067286 
-0.0009575361382095597 0.02420603787633291 0.02487098955197033 0.1010492714321169 -0.02037837731972324 -0.007293379223658495 0.02469155121085528 
-0.006403913422527482 -0.0004406911581652772 0.01341415981287002 0.005468663045738763 0.01093936023973021 -0.01903065830356396 -0.05163346256934193 
-0.01787400979035843 0.007358107610045826 0.1109908263144427 -0.05869962114771611 -0.03999330639796029 -0.02914163913040832 -0.03995896283449456 
0.00286577319423284 -0.03018990387986043 -0.003480235351886264 0.06693839277261446 0.001829847079916256 -0.0001129619921793102 -0.05618417049182303 
-0.00308489589725235 -0.07389934001209827 -0.03639422344031002 0.04071320171993893 -0.01808018983850262 -0.005637232163311715 -0.03662061825011972 
-0.03271246155445035 0.003039987560371418 -0.04813501232631555 0.03955106499271874 0.02455571766141694 -0.01818643180489598 -0.08239403467936593 
-0.05193260695661366 0.009044583811598164 -0.05046481361244463 0.02995715411295934 -0.008343242590769734 0.003695040617957365 -0.04581714793286395 
-0.01620224571822086 -0.03143869345954381 -0.01657749368446033 0.02378236092022083 0.01326872143703968 0.01088096981704143 -0.01386394524847999 
-0.02851807422149109 -0.02572551922497441 0.04127953493303209 0.04217395194001644 0.02891542075869374 0.001485642228139346 -0.06380966297025514 
-0.04538285825739592 -0.037072705703892 0.02974098776638291 -0.03305326996267854 -0.0005184911757754928 0.01750309431709115 -0.03550194696506404 
-0.005232163322763196 -0.005593865724093617 0.0984721701968147 0.0005127402060212066 -0.03227387894493455 0.01672225310280564 0.0663465805501607 
0.03852017732488987 0.001743815808529552 0.002477464350013042 0.03808692537573855 0.002730607330240442 0.02116652482556508 -0.006995687972488303 
0.01182903048060525 -0.01280434244893799 -0.02600115639595971 0.02037420365122965 0.102134869858082 0.01513301923497565 -0.02787353179606922 
0.03050080930677062 0.07003348163315208 -0.06755934600930817 0.00424805438645747 0.1965551912791345 0.02153362475637428 -0.1210135878115643 
0.01807904084444868 0.05503919477598629 0.1152298094525131 -0.1029702397971389 0.0672245764954742 -0.006717945896629038 -0.1395309890051084 
-0.05945884666908337 0.0732481295543537 0.06674415099113577 -0.05457839332521942 -0.02494191952611504 -0.002115750998351546 0.1963268162799756 
-0.02979614692392156 0.02925278485510122 0.05109044070311065 -0.01000354959784238 -0.03171095812976221 -0.02428089868975972 -0.07787260008280372 
-0.02245967973559641 0.002717888375621612 0.004154254709545795 0.07661581090250633 0.01942450512380148 -0.004266466283623091 -0.07894808248999872 
-0.01321387975181302 -0.06501812631710824 -0.04543055445631212 -0.04495759410785061 0.03411112360356056 0.05258632420765213 0.09157293449512295 
0.009840436692861743 0.008983747582363017 0.01041837822095136 0.07127219459284975 0.04719586696417486 -0.02377861936774269 -0.08370467623406722 
-0.01335798794594456 -0.04945410170308299 -0.06291394822396598 0.05778260321199374 -0.03176068524835005 -0.006442955932537434 -0.03204725869602427 
-0.02272947058957668 -0.01544838048751077 -0.03701157471044253 0.03574772031512502 -0.02436426432202506 -0.003890738515281959 -0.07582822160220315 
-0.02661277489418085 -0.01019965122874801 0.1108761723880907 -0.1049518978014456 -0.01098643841222118 -0.002951060924315821 0.0254739446909431 
0.02131551000302318 -0.05391683580162519 0.07994502050600215 -0.0006228339481223281 -0.01935252626069261 -0.01164136691382812 -0.02989190934992106 
0.04311177637061817 -0.06750501466733588 -0.04921600242437359 0.1101025051483138 -0.0485050006629 -0.002142980636251661 -0.01306101008786633 
-0.01600006388125359 -0.01694056527746206 -0.02971836776988423 -0.02221412749677132 -0.03055726381964136 0.02952399807993926 0.02892199811521052 
0.05524833421571956 -0.01476920368363197 -0.1290205189307687 -0.007322036920492338 0.001901204111795946 -0.05994782172816556 0.1217357651581959 
0.1063182322522604 -0.005051752634334462 -0.0006905092672050537 -0.00804842830020425 -0.02088107321965021 -0.06625132087550104 -0.1810679897653818 
0.06182261122813443 -0.05756455213552897 -0.01688055320537796 0.07010770838725616 0.001667925955548068 -0.04589799425413331 -0.09163696033787359 
0.06148939521977633 -0.03206123679073451 0.1009558763658213 0.03342070529347977 -0.03774484551580406 0.01282722645530241 -0.07357597402100075 
-0.0248980647336445 -0.01132443735296142 0.03249919455643802 0.0323378519740266 0.0003359416405684398 0.01807208668883399 -0.08763623843233269 
-0.05489883413608195 0.01758035556851767 -0.07412113303520458 0.1358059903504441 0.008843863309907926 -0.003432778475087773 -0.02167118194403625 
-0.04825145437694214 -0.003014313932971327 0.1020197031484181 -0.05243992327541636 -0.02548114443283726 -0.002057708563599519 0.07123197604774716 
0.06105104169476997 -0.03466348470358473 -0.08655942812502029 -0.06226282638133855 0.008914290443645115 0.02651406328834435 0.07064529992785881 
0.007129006346239766 0.02799753537518834 -0.03581280441837104 -0.0173471120574248 0.03734242600731924 0.008622667637709464 -0.1193306935109978 
0.005654300841005812 -0.03124274953151956 0.06248552570150574 -0.04488331568984646 -0.01420584197534949 0.008841898488287413 0.08157552619217981 
-0.003497921772025757 -0.01342601225479465 0.05895492494934622 0.005456266868985044 0.01970044106671182 -0.03911878378578352 -0.01156024366299209 
0.01490602049223939 0.01627061803901114 0.05516709382887817 0.01358791231959935 -0.02709520599631543 -0.05586025182237801 0.03164082805359442 
-0.04637886656278933 0.02937788157819351 0.05133376001753633 0.0886031197644771 0.07817052904795455 0.03228129717235911 -0.1570102859451021 
-0.1073695315740775 -0.02029157256804036 -0.02209847121201574 -0.03947844727296527 -0.0695199989462065 -0.009264097847190185 0.12339184039605 
-0.02066914430187404 0.02230092844081346 -0.0109197347203931 -0.0212241776810049 0.003549811797119875 -0.006726794604637103 0.06623998552197441 
-0.00635244085225006 -0.005546268719341366 -0.03832450519274436 0.005689092655424273 0.02517033916742033 -0.003116542503473211 0.01119954526165415 
-0.01154415647080684 0.02412179663070073 0.002722579349320355 0.05072632929113879 -0.01537234846338197 -0.00427287540611529 0.01445163352809168 
0.02281863867547754 -0.03702653965075583 0.01915216566200358 -0.07977503209419656 0.02828418908138294 0.02571167457298527 -0.1226915474505091 
0.08330777493178758 -0.00210602070542756 -0.01419211075183476 -0.0738775364771973 -0.01467508913744361 -0.01395092136385009 0.06758662121135382 
-0.02642208533751886 -0.01456237323206096 -0.03030059963761084 0.0492840335033229 0.01662080095869962 0.0154312131868725 -0.133478000694061 
0.01770384333266959 -0.0300126660518664 -0.0328077970010796 -0.04989055343733506 -0.001794236750984819 0.01249018975156493 0.04985699904034068 
0.007083475231513052 -0.005267486154991893 -0.02717700907318698 0.05450817250516642 0.0002781927999893154 0.006985582509263395 -0.01825934513197015 
-0.01963661554446833 -0.01996904800690338 0.04490441894829681 -0.00794697096639335 -0.0001165417827111503 -0.01465900542151398 0.07763527035022788 
0.04095877466892221 -0.0143960271094709 -0.0506237115715143 0.2008000303922252 -0.0188087240724938 -0.01470040760485175 -0.02654851182660885 
-0.09228432070036557 0.01820872199876726 0.0670777293779784 -0.03177772449344027 -0.0210743689126912 -0.0226609943740777 -0.004138875974589984 
-0.02842798399257696 0.0911565188414869 -0.09216075631683318 -0.07439912945105026 0.01983869968854042 0.003097495338932149 -0.008465573708987182 
-0.02365502057847279 0.04939234934458425 -0.09422667317637018 -0.02922483814979975 0.05501123811111714 0.01363974214569742 -0.05172979571337628 
0.02354491964881043 9.019406158036309e-05 0.03201118380549592 -0.0830013380812893 0.009059684786152105 -0.000101533059938949 0.0001608060270630264 
-0.006861637234551434 0.04334704795000199 0.02128422430613366 -0.05277702965658018 0.002579033349669731 0.002426351913346349 0.03207223676751991 
-0.01693522867077246 0.01107298508485353 0.02458975577674091 -0.02443163780218455 0.01773124131678075 0.01155139873486328 0.02218264740515002 
-0.06271038759368834 0.01648490479170242 0.0125899517132589 9.958228283946757e-05 0.01262160785490394 0.02506869431167847 0.0001848078127354949 
0.002371026416855868 0.02660521089564345 0.05553524984958175 0.009333307625802359 -0.01825453157969123 -0.0590911243029528 -0.1239164615880707 
-0.009723626990295607 0.02936964237464276 0.03345465564876479 0.03966362596433066 -0.02882806943465809 0.006667469389460382 -0.03026426200255489 
0.004535763015711815 -0.04910637546247053 -0.02616567440825572 0.08097554423832259 0.04776322406216017 0.01985656744299149 -0.04706695858845888 
-0.02983444218105653 0.004855383108038617 0.006882417107347219 0.006543026599450585 0.008068942346552609 -0.0009954336592766435 -0.0002525320322247386 
-0.009166320037633274 0.01854487259019345 0.00115550937810076 -0.02639451974521934 -0.003708691358649594 -0.01816555578659653 -0.006633769610343349 
-0.001530177983942446 0.06126716790262449 0.0004408138952594768 0.005375932583558219 -0.006102746939296101 -0.03170070486802827 -0.01543161206325151 
-0.06656107835822843 -0.03975920522848571 -0.0274798082864069 0.0479196510256211 0.05515287860544258 0.01141838040369855 0.0020772890999142 
0.01092314661882912 -0.04754314193969728 -0.01765323768325476 0.04475562147007094 0.01511384310551281 -0.001781327605206872 -0.09057586316196722 
-0.03398445915433871 -0.07528490207912361 -0.04375262009324377 0.08653388257597473 0.01577931252785219 0.008625946492404172 -0.1106365698930674 
-0.02995415815939946 0.02480000065444073 -0.05154337069102814 0.04383462309297954 -0.05410661092547717 -0.02113765838966946 -0.04202281541409655 
-0.02112353574493712 -0.02325793378966184 -0.01237919575847705 -0.05081630312901894 0.02811951755730033 -0.01670165850240799 0.06161303863228754 
0.01226279047575953 -0.008541900760383934 0.005383623882520392 -0.01608378742976755 -0.0001077140861634105 -0.005208638657858411 0.0001080042095899627 
-0.01182787684717604 0.01128050848989295 0.04223249959171515 -0.08401707686580309 -0.01914028560286919 -0.0184294790131652 0.05047342965215879 
0.00555751877540682 -0.01029252028585628 -0.01251559126357464 -0.02254634158215478 -0.008746643263008969 0.007929840014947303 0.03347317644083203 
0.0229947908470774 -0.04221818694223209 -0.02573567282445815 0.037622756592218 0.00880638337685659 0.00776990378287852 -0.001176859907495321 
-0.01117677114121052 0.05652285075503542 0.001059152719769182 0.03436094028107408 -0.02241281549365223 -0.01694595756257323 0.01383567283886061 
-0.0167281319011385 0.02900514174270864 0.006694988196818051 0.03052773225362179 -0.008344701332358043 0.004248836970617575 -0.03616192272138134 
-0.005497392683322413 0.0100212807598172 0.01755622878358513 -0.0129617683359975 -0.009263723704711692 -0.0143945361817726 -0.03657136194934416 
-0.007289979570756864 0.02611647642899842 -0.01245662810205084 -0.0256816313925996 0.01229640920313657 -0.007547729594180679 0.01126731893223473 
0.002738222831551335 0.0425092216572782 -0.001409985031606672 -0.02870252834487817 -0.03513970420011472 -0.002580426162323817 0.05911861443191498 
0.02474046774576322 0.03082766574999649 -0.1386007004531255 0.0288896355608207 0.03042682228897528 0.01168129374918416 0.001349782274116398 
-0.01107388167457527 0.009764817549365559 0.02157395569975416 0.07422893316899183 -0.02693744730808626 -0.03058082583818792 -0.06383876016876243 
-0.01158287258574707 -0.02303474713957826 0.06213428836664507 -0.04338720927827368 -0.02833897188846479 0.00567219344107594 -0.02391489778475391 
-0.009894859687980219 -0.01453068613437891 0.0461668540312016 -0.005144560051010436 -0.004185790184063565 -0.006960632850542808 -0.003418111214185707 
-0.02743980044008367 -0.03662978524963133 -0.06037307154397882 0.033155018689876 0.01962794052288241 -0.0133123358741332 -0.03677515560392956 
-0.02163039781672887 -0.02053423661156982 -0.005290276108974006 -0.04313893366701758 0.0597248853492549 -0.03869985531174185 -0.06341668450795297 
0.06290693983904375 -0.04356794888562802 -0.03833037996061039 -0.1308388808669655 0.02849983298985893 -0.04922231852786523 0.1645934561608413 
0.02943722196056814 0.02236655961318498 -0.1147102481930184 -0.07095696477107157 -0.1946710878921318 0.06430620904863994 0.02912513176349896 
0.02140607226409488 0.04141759431800292 0.03237094778074519 -0.01903621604138904 -0.08748946163107604 -0.06622850972894258 0.101944497075049 
0.006193894465618799 0.02228186388572124 -0.02028096801382449 0.04086274462791097 -0.00993662279908134 -0.0403566679113207 -0.03842969430904444 
0.05157951336178567 0.04088451176765152 0.01850246480135119 0.04377702065643196 -0.0008720939126628933 -0.03122541057569999 -0.1223854597270664 
0.04406657585362494 -0.04356395622441937 -0.1009967464508989 -0.004325431066601965 0.001270001419184401 0.003375264738804391 0.08498875693398364 
-0.04074055473746651 -0.03062616484560819 -0.06745890027113631 0.006254807408963599 0.06452809789198452 -0.02665799907762998 -0.05345447839767592 
-0.04536613254328731 0.1218556703071386 -0.0171795267767093 -0.03141332272523551 0.05645872516637953 -0.02492343849885582 -0.02814366287811711 
-0.0213389190080882 0.0321251668665825 0.1127157139844087 -0.06855870779761269 -0.02002403091378814 -0.008420853549057149 0.0188678590998886 
-0.06599522465321971 -0.04683729360057981 0.04491191246113493 -0.03924922869044774 -0.005321887439782094 -0.01236680114555264 0.1541387691970848 
-0.006042850502420159 -0.04357665959258229 -0.01375845965925546 -0.0604627120855825 -0.00397449935318204 0.003920395822871975 0.1469103013576868 
-0.006689122501969911 -0.0184338693313519 0.0344245929622911 0.02107421251804108 0.05369880301419446 -0.03831759627462836 -0.06597347312810593 
0.02310910556101996 0.006215910169754993 0.03274381001517054 -0.02433360171983688 0.07740507424247271 -0.01964492779720125 -0.1393243335627934 
0.05479295161537422 0.03797117163755197 0.03694851116948796 -0.1363729152509726 0.02689966739637893 -0.04489788764552575 0.05099789264519126 
-0.01799733843325728 0.06046305260324247 -0.1470009892730464 0.08215062401868044 -0.1491841486923449 0.03641323812994999 -0.1300808821082549 
-0.04333859652016094 0.01363410495586312 0.06757400063877661 -0.07120144740050104 -0.2042925367825315 -0.001123889600339721 0.2136942846672081 
-0.002159483911997363 0.02280431033495793 0.02979133226691691 0.02839286187254514 -0.05713728626634042 -0.06275209751944481 0.03793637472581687 
-0.01357852731667231 -0.02083401539978397 -0.002141745969135854 0.109095415119802 -0.005007374252661572 0.007145801927383092 -0.1645664843116004 
-0.03821250941933259 -0.04865452844462871 -0.06986124027816276 0.1068994625705944 -0.005804572284494588 -0.02911693176774448 0.02338202486359968 
-0.01770450188597051 -0.07030540233886684 -0.0168557146924056 0.05500860337670568 0.02926793383023924 0.002749149936516244 -0.002899848051421466 
0.007573156656324426 -0.02411086570439833 -0.01915664807379016 0.0397698163436322 -0.05514714232740394 0.0003042851293794103 -0.006532930927233492 
0.03312472691489345 0.01688395783551982 0.01019245998684846 -0.1299688238884817 -0.002783941053238715 0.05433686358993467 0.0058514599112414 
-0.01361019599663252 0.03204514041013609 -0.05949073473754687 -0.01215859382346452 -0.02764624127652676 -0.03457223338274318 0.09122011866596258 
-0.01706077383187277 -0.04990189683581356 -0.03693572594112243 -0.03296669360303935 -0.01055441678523835 -0.01362430803384345 0.1269653989081116 
-0.01435153471039901 -0.0155129076689546 0.005021400131194016 0.04475296139073849 0.01193016261158517 -0.01686535557035004 0.01239847132383363 
-0.05213805032550898 -0.02952325714266642 0.05014183628801473 -0.1818857648812355 0.03416392078810853 -0.06653211510658587 0.05199136877442864 
-0.03446454213864491 -0.01091907190049062 -0.03310924999292233 -0.0738604660354239 -0.003169645154973351 -0.02286458000194636 -0.185260938608719 
-0.04956282128008999 0.07579476413832263 -0.04420142424675252 0.02627888354648612 0.04879387766700239 -0.02374271499110319 -0.1543829476705652 
0.09507009168807518 0.003307856138613262 -0.05959207936432617 -0.06167009924811171 -0.05515810018434745 -0.01051699738019477 -0.04292483667049562 
0.02948612057755593 0.007956791481843776 -0.004194958693496772 -0.02624159151785691 -0.003316897427094554 -0.002735575603755012 0.01525721605011287 
-0.04559996902279827 -0.005160621602183718 0.01472586616105355 -0.06018984025996945 -0.0006399289599671319 -0.002456912591033141 0.0667667740883023 
-0.00595632300953663 -0.01836526570857617 0.04488558277220506 0.01887692480169565 -0.03243765122702012 -0.01687287959864293 0.0218481945676494 
-0.01499557202528877 -0.01552021628035404 -0.005541142198629253 -0.006728823510123195 -0.03358652590665445 -0.02861205392714954 0.009324183969035343 
0.008544593196975434 -0.05775109978825348 -0.002390511970369939 0.07314239174469726 -0.02384560463593269 0.03549935686521712 -0.09865650257619407 
0.02993154783940091 0.01065878324226678 -0.00727002988620034 -0.08156706770794221 0.1503116780163627 0.06794014652994973 -0.01618933154924262 
0.003846503677494373 0.06528901283651865 0.1110326763041256 -0.04822298522612716 0.03358528530352421 -0.002582200567903239 -0.1686672742305731 
-0.0616505724744586 0.02965679306201906 0.05608590053459139 -0.0468104994019407 -0.02705839579989501 0.01097692798247388 0.1390780201397814 
0.009501337354568873 0.005341660348809396 0.03826111473470191 -0.02330272423277239 -0.04988418149616796 -0.007419278250130086 -0.05235193926811847 
-0.06568776239085417 0.01628842929558308 0.008515069612682807 0.03060064979725689 0.0115959682318682 -0.006365619609977976 -0.1229985836558247 
-0.03339076666797896 -0.0730558263465865 -0.1265088956329199 0.01013476654473284 -0.02645805710751795 0.05802119794435313 0.1617448143824796 
0.02399535229325213 0.01116224977547806 -0.001772762126931397 0.1102718104804859 0.04167121939713457 -0.0374134448555172 -0.04975123484375793 
0.006804330331120937 -0.0354964548371991 0.006608278913944176 0.01759575619818445 0.04287189503853111 -0.01275147826423555 -0.0861661190231279 
-0.002545117746868502 -0.02386766405602594 -0.02976863832820723 0.05376874634412224 -0.008240698613523039 -0.01393164253340977 -0.03676275995643095 
-0.004634057861216535 -0.05829471585961673 0.0312945360689921 0.005009006409670287 -0.003416406985626206 -0.005878265890705964 -0.04416108735956599 
0.001199028716994089 -0.05269891228497952 0.1422911115920577 -0.02351343566130654 0.0115709492638301 -0.02359999157701919 -0.0509786094826515 
0.08518211102853274 -0.04772249959784623 -0.05701434721209599 -0.008962239757920109 0.030071152083602 0.02375205377672764 0.005733861624193656 
0.03550957696534929 0.04990501662453647 -0.04197144405554486 -0.1175968561724988 -0.06552709209357138 -0.015969874467601 -0.01954499806718286 
0.04448214018765905 -0.03100232654738221 -0.107045785577951 0.05803890820005641 0.02705659243242834 -0.04166485593931266 0.1878174210631572 
0.1044493273000289 -0.06648081271261068 -0.03217349330797913 0.06191935365676716 -0.02534431731737209 -0.05274048836747822 -0.09728992877054325 
0.04455304864736269 -0.06189430573503159 -0.04217667852679994 0.1503706117062136 -0.02149843389993852 -0.03413992236140559 -0.1013749428465929 
0.0424842710791613 -0.04982958979587965 0.08507626073069949 0.03346065034063399 -0.01979977336570902 0.02814664492640202 -0.05472041121700567 
0.003018803254859552 -0.02414913241242876 0.03862105540375451 0.08901517829317408 -0.02431419464829437 0.01047809784046597 -0.08928864126834961 
-0.01685425738961387 -0.02891002006338218 -0.06397543290045243 0.1019025215273077 0.00682738457075927 0.007582132245012359 -0.04267604662941953 
-0.05093671225961985 0.009519673122384003 0.07273581402199696 -0.03700809951225175 -0.007768503333609055 0.007278032180799471 -0.01156870279669332 
0.0190086756271106 -0.003181520391086978 -0.1261073094244179 -0.0271531733017336 0.05840165939800068 0.04404511602699945 -0.03131935723438419 
-0.0128252015265667 0.05294655762768397 -0.009543507779869958 -0.04445938174070783 0.01906661735498157 0.01962610386804101 -0.03041026155410409 
-0.0109812302424901 -0.006151706359454315 0.06658114253436942 -0.03934575261621921 -0.02565532498237329 -0.004973931038326832 0.02941488542675363 
-0.02226049332953865 0.03528187041751257 0.0569898682803637 0.08067448269405322 0.01815924647074118 -0.04883188690613115 -0.02331134893070664 
-0.03951286490992822 0.0303552341552749 0.08525403141891832 0.0003807648203719079 0.02827044275637742 -0.04424967487562981 0.01064053893686252 
-0.07183201900134943 -0.01658487114763517 0.07138686146918839 0.05836836694631538 0.1265977757695482 0.04005224099850124 -0.1169209719794479 
0.002226088044475754 -0.02255703698015209 0.009977225449490821 -0.03681904883687365 -0.05258867772808036 -0.04769221727018179 0.0003500004825910323 
-0.03656650305842591 -0.06286462057756627 0.04291040226668759 -0.07002121513696909 -0.04169744445071313 -0.02022156552295339 0.1575265275308099 
0.07387506662498021 -0.02535612470732095 0.02871412544936499 0.05328922848648723 -0.02637100339260243 -0.00758197623002198 0.01399526476087903 
0.03233435661403018 0.008102006877563647 0.03724159971962444 0.02096494811520082 0.019084184336986 0.01865670069603784 -0.08893206093198187 
-0.01409957335878727 -0.01667400141643934 -0.02024376105733402 0.03128450580917325 -0.01150729953703643 0.02058761349238401 -0.01703151449598502 
-0.01987787473950798 -0.01200691821317715 0.02423169393098245 0.03176331540264477 -0.006485087058135214 -0.01573895426154404 0.03111679203274007 
-0.05558642224031083 0.004633994022899424 0.1069563956146563 -0.07219560979042773 0.009993677998292878 0.01710743533358184 -0.02679844406901735 
-0.06252456213783755 -0.04074041424816401 -0.09550827355006192 -0.02143653551734724 -0.03728876188286331 0.007012774326030384 0.03725456635011874 
-0.07441024705230742 -0.0254430529274591 0.01192361843703213 0.02970240899955368 0.007643246400181478 0.0127217296458875 -0.002552225916314883 
-0.02181524786952974 0.04164150439859225 0.06979063014412332 -0.09685128574372301 -0.008335864664904921 -0.01035557085994872 -0.01042678633512059 
0.01040288262053313 0.01695649870794166 0.02864908285735717 -0.01185789833788718 0.0161141473799442 -0.01336799132518096 -0.069472005601262 
-0.001509868985976536 -0.005319358027492669 -0.002007367528174451 0.05296806108519238 0.003183629599360953 -0.005786444682620352 0.0175125423329622 
0.00548667815932723 -0.0728082421984494 0.07700400345465648 -0.01171547369358306 0.01342027861308923 -0.01049690981315097 -0.01209894614793209 
-0.02500376440026872 0.03676536221662288 -0.06263390762088392 0.08245457098732824 0.01930640468902055 0.01703554800096907 0.168874064134152 
-0.006260311927186683 -0.04454409069194263 0.006191386193222195 -0.03261099478623533 0.002209334198881815 -0.006411547884106986 0.04894522106628268 
0.005361126767016131 0.00470309042860028 0.02069228761769831 -0.04916806686921071 0.0117888563403737 0.01364679059351255 0.03969986976481361 
0.004369886830260072 -0.02369671706271903 0.000550638844718813 0.01959979313753291 0.0313283909774407 0.01244208720214763 0.04926272356189944 
-0.04102762921703261 0.04321357233306281 -0.0182334488534181 -0.03151279359352763 0.009739685279711231 0.02674478042516982 0.004694207583643896 
-0.01582254353821783 -0.0008919249650707056 -0.0650185403405589 0.0738993265413342 -0.02448401098212728 -0.04926888367918435 -0.008012204303963355 
-0.02734574048286581 0.01545844233617511 0.03365922379205996 0.06415101619489222 0.0108475467658048 -0.006984644216207382 -0.09472977098275187 
-0.02064152706577881 -0.02272715953987465 0.009401052666035139 0.05510460829306479 0.007635628892536211 -0.009667461117100151 -0.03131179473369629 
0.00503521039573783 -0.01506681209551758 0.004202673720844903 -0.0002601545197255885 0.001272940805006104 -0.003473458225011323 -0.02822336806746814 
-0.01083995092342451 0.02679761630051518 -0.00530335475336921 -0.03196568935840448 -0.002832304629606998 -0.00950713063743789 -0.001931324768841213 
-0.006801153048576837 0.0474695646489363 -0.01892423542575824 0.05956080894054537 0.009848521729807229 -0.02920714604338551 -0.04549646155008574 
-0.05012098522820794 -0.01325038425288596 -0.001463526904544613 0.1072185011297986 0.04002577501927361 -0.02325396771436529 -0.09332101440021413 
-0.04843911023074524 0.06707341914592745 -0.07618132572068961 -0.0671471829753495 0.001427121498559969 0.01671155993831536 -0.02107968684441179 
-0.04285203340356836 -0.01163031903316244 -0.1260892546605223 0.0237387992682955 0.01770300087515191 0.05490860518837382 -0.06615736720759058 
0.03184666307701247 -0.03367397642437843 -0.01360283170013471 -0.05192040099250133 -0.02322279163713767 -0.04079970678964948 -0.05034472270149487 
0.0316321336543198 -0.04110883364746847 -0.007561037071267619 -0.06237394391233624 0.001380431069205724 -0.02499090515044033 0.02032346648289442 
0.01117337725521147 0.004240564341437747 0.02469239083098749 -0.02734310914002046 -0.005144015253397844 -0.01124394985955966 0.01974143530932563 
-0.01820816908345935 0.01248394901068668 0.03947133656622104 -0.0713738752111418 -0.01905115282588019 -0.008864955680677277 0.01158614619659283 
0.02276246698241357 0.03384858096144908 -0.01851330934579834 0.05879454277575736 0.0105279473496624 -0.03277342237811928 0.01992476511129399 
0.005741924302300485 -0.03923431435428717 -0.0313987699565464 0.04337927254570121 -0.001268702287854063 0.04403011551233198 -0.002743993340981248 
-0.07537114085136123 0.0552717031072498 0.01191199189689723 0.0693330946017211 -0.004810638280425361 0.007963891862643338 -0.006049055211572182 
-0.001411362134304378 -0.04913478419676379 0.01035950330109177 -0.01377090434127704 0.005819374600218444 0.02343137682159258 0.01476190250677095 
0.007169340097224062 -0.008660088922745954 -0.007404929404237565 -0.01301597337584679 0.004040018311636128 -0.004935681099771365 0.01193433338466414 
-0.01177724213405681 0.04959038658745448 -0.02294632747039222 -0.03423722154918231 -0.0159621830258754 -0.01270054737780923 0.02291016284861137 
0.01332356544746486 0.03039933139389031 -0.04601524480827303 0.006243540785974075 -0.01472205221353197 0.002271385112157746 0.03063376531540114 
-0.03057065003656461 0.1015624631705749 -0.01368163468577069 0.01083879528241448 0.02162076213328751 -0.01433757682123839 0.005776159408283554 
0.01775963895268318 0.01118129210365607 -0.08725181107696856 0.02170536826585318 0.0947548346688203 0.003322588108255469 0.02291344968854628 
-0.02612395583068189 0.03650214364753364 -0.0854614338249579 0.04807939792030741 -0.04039952240495508 -0.08003338288579298 -0.0435650194929619 
-0.01610849799061352 -0.02330847832757925 -0.002189207963129243 -0.01287870356870233 -0.01733694187402002 -0.01515647232488816 -0.1127920698367457 
-0.010422344928732 0.01072068029130141 0.0245164083502848 -0.01568875680054956 -0.004178245319166159 -0.00626530510180983 -0.005794999907675148 
-0.01251775733607001 0.0107191452315721 0.01179395963270152 -0.009152430611524131 -0.003976005389748551 -0.0008462441443582325 -0.01224037911795689 
-0.003574255628015854 -0.01390162999661865 -0.00226472184447275 -0.04154816664392661 -0.006570761417683492 0.0117646657970725 -0.05325031905211056 
-0.01115496627863558 -0.04999422045244364 -0.1097018826794948 -0.02940627075012599 -0.02030601875291786 0.03377839382875344 -0.057201340551559 
-0.00322824365585045 -0.0193419306076811 0.1297767233856396 -0.08698653738997869 0.05919886809771457 -0.07642675418742353 0.04369768851251639 
-0.01467028427559706 -0.03115014498266104 0.03573529853963921 0.04635272802726917 0.04628202875033451 0.0003751789034156258 -0.2001243133751083 
0.01272240039495106 -0.01298025888242712 0.07161116279643115 -0.02656875831834389 0.006794937100069499 0.01891406730925722 0.01345251677300222 
-0.009404573819245162 0.00947061778834722 -0.02117807777565162 0.03081003716998871 -0.008049260466079637 0.0006122970738136886 -0.007311028580284219 
-0.004172639108213936 0.02406011942680501 -0.0184659147542256 0.02713029444198321 -0.0177895396986568 -0.003524634279362978 -0.009231716501634632 
-0.00498880579227581 0.03344417818046164 -0.05504167689427963 0.1187777562539778 -0.0198624401847778 -0.01407771201411499 0.07585082946591511 
-0.02922811706077717 0.00894912324359113 0.04341380877177826 -0.07141822247146989 -0.05262567568643764 0.01428989716331158 0.148362773778634 
-0.03900240181168618 -0.0179456451534576 0.08883737760800066 -0.06967585373719691 -0.03651704128592979 -0.01013552152333682 0.08262072894575445 
-0.007687534974170815 -0.03515513966020336 0.0351408666814622 -0.05968874503029396 -0.0119613566893951 0.0003238091223464503 0.126027502544293 
-0.008683838924343247 -0.03064234824816442 0.03822079717101635 0.001463540771821865 0.03033306091687246 -0.02080270233799743 -0.02644682108815615 
-0.01169037849327525 0.01169602834838007 0.01877193888772447 -0.01703980786177151 0.04874294536110139 -0.02059274365476693 0.02992147998841172 
0.05954479805861206 0.03200664669707423 0.001021024105384918 -0.03904117332376995 -0.009914350840098585 -0.064640342788678 -0.07760304650599584 
-0.002807501980553634 -0.007973259044765774 -0.1693171033504061 0.09365599262597385 -0.1497219635402762 0.08158929827038935 -0.05022321421683549 
-0.006266424848964068 -0.02194695791525771 0.05816605137995093 -0.05697735819554688 -0.1882086321476219 0.02038843910881192 0.2042119498581137 
-0.06367509382442327 0.01718870421527288 0.07485451923103061 0.03338585810509088 -0.08152455136331538 -0.0548938067166739 0.01790355998345666 
-0.0339438557044558 -0.01346750684001746 -0.009564477115958123 0.09510789243739168 0.05251311325566354 -0.004235348934606809 -0.1923966323214227 
-0.06480593215213359 -0.07018573176720408 -0.09311649180809672 0.1172441192537747 0.02312722412412616 -0.03564632076707099 0.04806573947631874 
-0.03107547820962951 -0.01546346665716722 -0.04608613334572233 0.08752575919084103 0.07526566149538882 -0.002945009554292262 -0.05842243936467063 
0.02935092833684317 0.0001742943961976671 -0.05396504762004952 0.1062833952127369 -0.04060689007671325 -0.02261414214006431 -0.03445284154143587 
-0.03005119863991035 0.05424409027477553 0.0650134115980299 -0.1157630201187581 0.008275034801733919 0.01336699099164312 -0.0347412303109514 
-0.01057233924782379 -0.0243234304568541 -0.04569883746128062 0.04066653427247466 -0.01855983062371747 -0.04011647342244658 0.1028102617014231 
-0.02659195089976521 -0.07079448136201888 0.009227226532082539 -0.04310485376823089 -0.010103700533331 -0.01536054706353056 0.01028114407420713 
-0.001459205478697938 -0.01864853733503638 -0.03807348716298867 0.01086558037944396 0.04481233373184974 -0.01665678919466176 -0.04530945472716313 
-0.0386707304120338 0.01567484650763052 0.03833187197463343 -0.09363734731847427 0.01492345198085825 -0.07571981148951221 -0.08815242178856941 
-0.1492930416593422 0.07989958014461468 0.002466814552616237 -0.02686400821684874 0.02908432793974612 -0.07788462831893797 -0.06558796407677195 
0.01244828853118813 0.06712470316713907 -0.09217757407002959 -0.07330528318805139 -0.01573096715419658 0.05386174256066172 -0.1654441710115241 
0.1046601608543159 -0.04361024153732616 -0.03007439641326091 -0.05568113654950789 -0.04725066629637958 0.002122032459876798 0.03636621112571876 
0.0319810379195648 -0.001567413666278204 -0.002626956027853602 -0.04745206543162949 -0.04006395734590363 -0.01006948944092496 0.1299145783547661 
-0.02485070137839928 -0.01744964146277544 -0.03376481037667598 -0.00151703154277638 -0.01934630047911683 -0.009977221958555171 0.04567993995244875 
-0.01245536014879444 -0.04592180572304789 0.01111755586880994 0.07962822911819037 -0.01219680957774765 -0.01387348238552547 -0.02574416865725108 
-0.03632671536785696 -0.02391253434272118 0.0262401550470003 0.002962627698310063 -0.04208698769547633 -0.02775436167399332 0.06596386691296205 
-0.02494868062255855 -0.06876288695390441 0.02534161567068259 0.02426098457245678 -0.01559275097215948 0.007204992894624564 0.04976289230988584 
-0.02351889414492572 0.02375693985022239 -0.04015856481808559 0.03082289964616843 -0.02393146853894183 0.03758408984526249 -0.1465184767351337 
-0.03138874879966642 0.009432031486597277 -0.04990073182785026 -0.004593710409497207 -0.04465257824839443 0.01658607960910411 0.08648248279127359 
-0.01034372514484281 0.03448956207358429 -0.04225643691515107 -0.04028576692222467 -0.03388268203911298 -0.01365064435354318 -0.1389982872135787 
0.05832550217753067 0.02174972938436354 -0.001652356536180812 -0.06439153596984627 -0.02137555768720123 -0.03092115743982851 -0.05574254138390695 
0.1029595259297263 0.066068687716031 -0.02300337390311405 -0.05240825943427616 0.02217640327257313 -0.04606938004208126 -0.04375434621451995 
0.0629300019704344 0.01579664362886896 -0.0807448972763351 0.08491210558830124 0.04329164035719642 -0.06993819086412846 -0.0180366205188216 
-0.003939776145300846 -0.1377760729377659 0.04808822272900733 -0.169515917176657 0.05218425601896515 0.0131029259435505 -0.03602082175270423 
-0.04910065954073155 0.06872821055334295 0.005707873218667748 -0.07045549529109951 -0.02138925044755908 -0.01861229431591642 -0.02372737925403825 
0.01152305583857276 0.01584751163282632 0.0005973245130253542 0.01337685054287338 -0.03239826352361079 0.008356008315624476 0.03342549892957275 
-0.01312030595749901 0.08719940885067867 -0.02781696980978964 -0.01662666249384814 0.02371512475795341 -0.01344610044561935 0.05303223173012019 
0.01330954076994816 0.01023404057818712 -0.03698484622704205 -0.0449189983123148 0.002951333518737862 -0.02084985987359917 0.05277506245916327 
0.009759663027093978 -0.007110884953314889 -0.04451220212181184 -0.0057509333292229 0.003227294502061195 -0.01005060349878829 0.001679595875226108 
-0.02245079307183756 0.01519849178520417 -0.03344077751437247 0.01366173031842768 0.01332529285852663 -0.03595334436153128 0.03894340865735643 
-0.007908279351612476 0.008846374437113598 -0.04521344780178774 -0.03390539605004531 0.1344236719052807 -0.04373464995484629 0.05484251374654438 
0.04123258860173222 -0.08829941798297394 -0.00385810694197287 0.02406574483534298 -0.01429327432811094 -0.04695419068193983 0.02431056317142145 
0.01029869043702188 -0.006761825449535797 -0.06487093933383017 0.1830034572253985 -0.03213562388340757 -0.01543376834231182 -0.01373806546551584 
0.006369204250761377 -0.004978600929806048 0.1000169195683001 0.0543858749510851 -0.01602578315036557 -0.009245417189374277 -0.02550592027002724 
0.01355774142156034 -0.005474609455689484 0.02862831981956492 0.07577591228170573 -0.01708439067099644 0.01317573803286212 -0.09575530588491708 
0.03367265622145998 0.008672423436192201 0.02735800476056952 0.04719052698863655 0.05877461788122003 0.00108378663613546 -0.06877445729108039 
-0.01152464216822924 -0.03168570968058703 -0.0008225027948672057 0.03130276087535559 0.00702249031052972 0.01664610686517567 0.03218985219209487 
-0.04866034418649846 -0.02912359835193027 -0.08475982657518903 -0.02235904567450754 0.04908178557461093 0.0233193338314234 -0.1313620913947134 
-0.06237165865755774 0.06667531297650689 0.007798415922983678 -0.04189920501102092 -0.01883388710015434 0.0288666650206245 -0.03891866628261148 
-0.008370987945619697 0.01605904727232745 0.0644758400821394 -0.1119764325910689 -0.01943627652733233 0.003430598939534048 -0.007163097624819863 
-0.003171101578329914 0.02721030175556833 0.05738157741681203 0.1285453238669415 0.01826736070607896 -0.03457710139996437 -0.09326322323553266 
-0.01587640880338921 -0.001525674276480753 0.02441860786642782 0.1197998818773441 0.0237336176577209 -0.003492109068225332 -0.07209113796027267 
-0.02908658711169044 -0.1103978271049824 -0.003513892530469691 -0.04021751238650289 0.1513598989898791 0.06776791952117195 -0.1047738197569803 
0.02923568155166293 -0.07172904605870925 -0.05168769622874572 -0.03405051947883805 -0.01800796074738125 -0.03090684492994413 0.05382967416834668 
0.06089570973207845 -0.04278233966936582 0.05130710830429101 0.03097297298455429 -0.05616374771084578 -0.0277849625034312 0.09285460075761429 
0.1100881419330314 -0.07882046246931702 0.02358493957562962 0.01508262908025015 -0.05216391474597151 -0.01341753447103008 0.02964663368080565 
0.02194913182443779 0.02065340523156015 -0.01365814557946506 0.07180900354882119 -0.006145256862729816 0.007104948346863285 -0.08947189694812292 
-0.03301226016533815 0.005889227209481413 -0.02056251001038705 0.03037889665220508 -0.006431128058243857 0.01618632222133238 0.01721550989113933 
-0.03862750339614825 -0.00188538464839609 0.006222909111671725 0.06949652987171342 0.01392090467321496 -0.01662473086673585 -0.04304475042689813 
-0.1020594216677612 -0.02661565654198035 0.07072706282532525 0.05134318315149001 0.01801974362707337 0.001551169867004107 -0.07543226478291973 
-0.009879974119381754 -0.01716677160891713 -0.04017201461039974 -0.02601504037528577 -0.0558316616063682 0.02543917066816857 0.008474454189768017 
-0.04988930713841663 -0.008930218243516665 0.01123235297622366 -0.01184219916647109 -0.0313467677929903 0.02113283883963592 0.05741979459960186 
-0.01094332669804803 0.03254839693320664 0.08600908667905441 -0.0614548714787392 -0.01284567908224541 -0.02147709753691055 -0.0242806865403681 
0.05797213644584688 -0.03018675452859377 0.06144022112463962 -0.03158325262687853 0.004029712293403194 -0.01228580638466349 -0.001777062295571928 
0.02269746513973925 0.0007950655123045441 -0.03310909675243714 0.05151351932472038 0.01546514340880091 -0.01356996171046374 -0.0532664484716187 
0.03879770954359046 -0.0631974623782056 0.08632444881982321 0.08508965954515271 0.0150022249723069 -0.01828112188053207 -0.1235578034829874 
-0.02767341805561579 -0.04183442910492208 -0.04006812590120697 0.0007960059359484688 0.02370526388797193 -0.0497642936681063 -0.09178556260849403 
-0.05465066425869388 0.003076354469300516 -0.1433291133340075 -0.008406400806819316 -0.0382225875997925 0.003773861224618548 0.1150299806788521 
-0.01192256650289975 0.01712129399742093 0.09650106263101745 0.06993245019985213 -0.01743258893703448 -0.06470870706425128 0.01281296046682771 
-0.02048264609186964 -0.01757076504349601 0.02633954159241152 0.1103340053507624 -0.02205461668400133 -0.01921169228309822 -0.1018705196257421 
-0.01484624823074631 -0.06380124306228527 0.02627730617672965 -0.001339314986628523 -0.007558852295385597 0.01250624504309245 0.06379214315967809 
-0.007771222304229895 -0.002965183024995942 0.0779547315812293 -0.05935443682054251 -0.003873242532698196 -0.01616994610975629 -0.02184725764157362 
-0.1283735459482865 -0.002201384208766047 0.1126070527705433 -0.008271961755817877 -0.00941341677132603 0.03304158120615459 -0.05972254000365455 
-8.475837155747095e-05 -0.04074684969169569 -0.08390116974091179 0.05894566661491996 -0.002207895474379275 -0.01187426509248483 0.1169244959575337 
-0.02439462158020875 0.01862868861834542 -0.02446468801333244 0.04934573883157624 0.01493002586624425 -0.05539171975222964 0.02053130231169464 
0.01357381466038718 0.003340407560608405 0.04311136372620008 -0.06580970897110065 -0.02638608345112121 -0.01872594705819844 0.2726032212032297 
0.03228113183981062 -0.0351007043615261 0.04175356087035322 0.02622569943482059 0.03447110710192882 0.02079620953783376 -0.1218591430127308 
0.03130782250399858 -0.05984872221788291 -0.0167184053312846 0.002680465978795186 0.02936195777632173 0.02343063513265665 -0.08814741357798234 
0.01075501768592901 -0.0296948189114176 0.1119368099846026 -0.09352047612271798 0.07528828357208364 -0.01140858171373671 -0.2208609989737968 
-0.1025224094415009 0.01321369310952265 -0.07298653515436573 -0.1249116208436117 0.004933929844631351 0.04723931611324811 0.01146721972131336 
-0.03460123950329062 0.05948067289391265 0.03469913871777003 -0.05630084428376726 0.001542525737577685 -0.02099163720081721 -0.04411462440964573 
0.03735487369719166 0.01842256073496809 0.02097640128779112 -0.0450090203268865 0.009045906843672607 -0.01217000194090633 -0.06362947610214871 
-0.008778699445303234 0.02512931322642562 0.03428067433972281 -0.04249407150258748 0.01790904856287281 -0.007736658460193611 0.002471548691609695 
-0.00523146059614955 0.04525193108899468 0.04851251171485758 -0.01364674062205765 -0.01591665021871205 -0.02233092611702969 -0.08426218556561652 
0.08094371468662295 0.01372248737225354 -0.0448773870643293 0.1350107615587328 0.003235687409844699 -0.03550594988913101 -0.1133108277807504 
-0.03296352419935177 -0.02463203766693381 0.0384345702512383 0.06489211063944081 -0.002092327438325214 0.02331750353888554 0.0355126434395355 
-0.004111553848826751 -0.08157465577556271 -0.01800412256438136 -0.009609777340525091 0.03003655242992471 0.07136769183143384 -0.05823222177808594 
-0.003701369797858127 -0.0353701035855165 0.01049840940376259 -0.0389882267770809 0.01208026634836082 0.008295727373215652 -0.006547105629392069 
0.01411619834923874 -0.02462171497547225 -0.006432031605734244 -0.01426086440824658 0.000219156980300265 0.002298062507795395 0.01047308427104832 
-0.004343165157600643 0.05858277144681871 -0.001963079780492938 -0.02281477795062702 -0.01531714581401835 -0.01531771830026384 0.01433591204029933 
-0.001893829500786548 0.01010426464947148 -0.01695037127221545 -0.02996786859737669 0.01202035028314829 0.02448932646528525 -0.03076122833189789 
-0.03786604555487882 0.01102307158673688 -0.1417279706787234 0.07558711500988749 0.003297377760545114 0.06314270521493544 0.1191018642649737 
-0.04700294886882544 -0.02431821724224524 -0.03675593225829174 0.02435569632264665 0.08089067698768516 -0.03806773124750272 -0.03575070325046299 
-0.04885915304395964 0.03410077923152128 -0.05438191071782243 0.09444407999373654 -0.09747400140708509 -0.03464651501864267 0.06804832041640203 
-0.03531142224810618 0.003021143911071767 0.0137544884446139 0.05477396559417352 0.03957200198074708 -0.0305214488571957 -0.06628286401169591 
0.009534655272375228 -0.006930245712948715 0.01439222309941216 -0.01420222570263078 0.001663145804393535 0.003143201639438432 0.01340612019797007 
0.0002687830947955125 0.0333466721367687 0.03047393094502854 -0.04074182960113903 -0.02502083862111641 0.0003134305365465302 0.01505192004923782 
-0.02889429470033208 -0.03474439593511947 0.01837822957038728 -0.04564977830110255 -0.01062168589307608 0.02897857439105697 0.0179613890294342 
0.02649632710744354 -0.08811358881622434 -0.1659905395075073 -0.01982360637746857 0.03211663551803141 0.001665996243877015 -0.04591830227993052 
0.06412714048153911 0.05066039892460748 0.06295210596131345 0.001037014824787649 -0.0008626002292912245 -0.04018305771274302 0.005476853001054189 
-0.03474532754386703 0.001081817482627902 0.0256362203042586 -0.05287313738023732 0.02666551941163727 0.001341190464998708 -0.08701614686026264 
-0.02170279824817647 0.01487346427607965 0.08372034672118399 -0.0427182590544319 -0.004291335472429763 0.005636281655562133 0.003416629851662985 
0.00308145113510859 0.007149533387768524 -0.003019669237189384 0.006461725984069642 0.006499572389135466 -0.0002650709754037345 -0.02633542921488818 
-0.003929028582514645 0.03394591397088451 -0.006841058815072215 0.05311087294479734 -0.02205988151014998 0.00477796783683346 -0.06911656420029502 
-0.03513610455182172 -0.006084074948964982 -0.1007377268019464 0.1505417578403633 -0.01816027111355294 0.004413045965121559 0.06559005737351359 
-0.04894848625528487 -0.02081453880598075 -0.02639958270022126 0.03627702535855416 0.04569788365051672 0.02580682300791978 -0.1400043996568545 
0.03974987314342443 -0.0295723762345255 -0.07375726118200802 0.06585981420362735 0.001630470443651272 -0.0678118371200294 -0.05048571110616047 
0.1280177734158859 -0.010299429594876 0.07928027650455932 -0.05167451835861633 -0.00384301619463039 -0.07931552421851196 -0.05180969031744636 
0.05126195171994518 -0.01901505440091925 0.0251100795486682 0.009090261997722952 0.002351458059410661 0.01523281236162053 -0.152838908790484 
-0.006610320306920574 -0.03745879325634787 0.0176646226303611 0.01257390001057866 0.003999091093414852 0.01158044248399498 -0.001814245816323328 
-0.0225111943028386 -0.0510227616453687 0.05993764212991686 0.1044205579383411 0.01363658710086216 0.005958516581681134 -0.07369564093847374 
-0.02885504902493466 -0.04729341991282759 -0.02513711996392567 0.000734666996301068 0.03276779843787972 0.02684841790430579 -0.04962170155501092 
-0.0206435497514106 0.04138880372004564 -0.03543739602860906 0.007534031385023583 0.05401335739273782 -0.05346848859929042 0.04043693077330324 
-0.007597751873712186 -0.04204717948481924 -0.001335824654368278 0.03823834282854688 0.04877458474011243 -0.02278672772614976 -0.09530747209696246 
0.08806161003594998 -0.01153966527432356 -0.07643955200931825 -0.008310979814775651 -0.01105637776417391 0.002270232841316261 -0.009872571734781741 
-0.01459051521535823 0.009190787138648753 -0.0292988934855865 -0.01457043113489159 -0.01610632986260992 -0.01003544191258273 0.06324213305240693 
-0.003823679606472045 0.004778762132992619 -0.01456044102620802 0.002762287963223144 -0.009191340201853075 -0.006222659632118944 0.02813550210598881 
0.001318728893714167 -0.01538599713479735 -0.01406874092765079 0.008876198212363351 0.01436121610174863 -0.01115408411229262 -0.0003827433859318034 
-0.04972720742344883 0.003589294456572366 0.1106439550308253 -0.0773905182597103 -0.03899755001945956 -0.03600117576062791 0.1006420491481722 
-0.04966635996534508 -0.04031338853564568 0.0009743848463762249 -0.0088525430288645 0.007136440103525235 -0.0268133247857295 0.09812736203783662 
-0.03412844510766747 -0.07540689181668193 0.02326430950993114 0.008718717036478144 -0.002769682770913683 -0.002137468573783466 0.03692205361962309 
-0.01363425314742662 -0.009496608101290634 -0.03540051836981448 -0.05231787236275615 0.02828975925467766 -0.0277699659841102 -0.0101455565750277 
-0.03571953720077028 0.02040716640428263 0.02000273133365019 -0.01667374252242635 0.04915727987079711 -0.03816569980978674 -0.05043175706218966 
-0.03129981068642304 0.05509558796696933 0.0286478262282263 -0.1157856366653109 0.04360641040507472 -0.01796338797542067 -0.04540179193000816 
-0.07246976075682822 0.09256693604111205 -0.1281544140383512 -0.06983067781059116 -0.02730630825538844 0.05792617636232957 0.03660111023437155 
0.0491366755556169 -0.02159009181531626 -0.0318686490940263 -0.1476591225301346 -0.1184621561518076 -0.01340947266389132 -0.0088266685099149 
0.006372406425586755 0.01137402373069176 -0.01356537330859885 -0.06741040041155492 -0.0617273078580878 -0.02021562791037811 0.1572844909856119 
-0.01728856614670642 -0.02309604172197826 -0.0286074621229495 0.08414259789616914 -0.02679812368176961 -0.02336893473093827 -0.02518686891237502 
-0.02250834061147407 -0.05617409489043261 -0.03320550907319925 0.08646388040958684 -0.01085779565948722 -0.02071842948685717 -0.003250289032956696 
-0.02048426459177926 -0.03476926332501238 0.03582601400291401 0.01390583521971636 -0.03269440146360236 -0.0187473409787126 0.04324308274914963 
-0.04624609737846481 -0.09535553526280852 0.03512147595961164 -0.05078242416639063 -0.006209336677043507 0.04767092473459668 0.04419731397001744 
-0.009187742113908721 0.07655034372579142 -0.009623059831673282 -0.04943848875529199 -0.02211546177418291 0.06699170361671246 -0.05034045543139772 
-0.04780630651059356 0.1143328115404102 -0.08712232791971418 -0.001990956455449262 0.002662575131706162 -0.002103954335599833 -0.09021717378011089 
-0.02536105956784715 -0.0007042735428411499 -0.0006048848188332729 -0.002536180273798393 -0.04137039186044049 -0.06452836478789128 0.03408699443145517 
0.02007150689113248 0.03027966602592262 0.02933554855297136 -0.0405929260596504 -0.02917272711300701 -0.01638844397119478 -0.01096210830496221 
0.02057828675245592 0.04339572980149171 -0.031615898704429 -0.01356806012491923 0.06126716791586682 -0.050701750400126 -0.02728364140860217 
0.02618057834486978 -0.04827129357842651 -0.036867478420415 -0.01248287532952905 0.02137788454372457 -0.05724134730586624 0.03812428527946001 
-0.007504321013979008 -0.02823640852115536 0.02815993616973459 -0.1210450633361567 0.02323053203029569 0.000502434018565061 -0.1469979387369428 
-0.00306950448414569 0.02854874440877578 -0.02074194848282363 -0.02221569343324689 0.03826819298984133 -0.01987446520231896 -0.03237258828122363 
-0.009967885952857983 0.03272221349436816 0.02179399447779838 0.03143985376604621 -0.04076696783201363 -0.009297495998372696 -0.1126988727419768 
-0.0440188171615095 0.06917577148185945 0.01161259077512803 -0.09449864508748601 -0.009801470552656396 0.005063104528189861 0.07611003753826498 
-0.002991885864674775 -0.01403184926629324 -0.03268446447344275 -0.005718998608143026 -0.01697447983831741 -0.0141788167812184 0.06094098021327855 
-0.009095721502773553 -0.01179086488034986 -0.03100642319007428 0.004205297951198376 -0.02122705928525553 -0.009727704929061795 0.007008568530313192 
